{"learner":{"attributes":{"scikit_learn":"{\"_estimator_type\": \"classifier\"}"},"feature_names":[],"feature_types":[],"gradient_booster":{"model":{"cats":{"enc":[],"feature_segments":[],"sorted_idx":[]},"gbtree_model_param":{"num_parallel_tree":"1","num_trees":"1500"},"iteration_indptr":[0,5,10,15,20,25,30,35,40,45,50,55,60,65,70,75,80,85,90,95,100,105,110,115,120,125,130,135,140,145,150,155,160,165,170,175,180,185,190,195,200,205,210,215,220,225,230,235,240,245,250,255,260,265,270,275,280,285,290,295,300,305,310,315,320,325,330,335,340,345,350,355,360,365,370,375,380,385,390,395,400,405,410,415,420,425,430,435,440,445,450,455,460,465,470,475,480,485,490,495,500,505,510,515,520,525,530,535,540,545,550,555,560,565,570,575,580,585,590,595,600,605,610,615,620,625,630,635,640,645,650,655,660,665,670,675,680,685,690,695,700,705,710,715,720,725,730,735,740,745,750,755,760,765,770,775,780,785,790,795,800,805,810,815,820,825,830,835,840,845,850,855,860,865,870,875,880,885,890,895,900,905,910,915,920,925,930,935,940,945,950,955,960,965,970,975,980,985,990,995,1000,1005,1010,1015,1020,1025,1030,1035,1040,1045,1050,1055,1060,1065,1070,1075,1080,1085,1090,1095,1100,1105,1110,1115,1120,1125,1130,1135,1140,1145,1150,1155,1160,1165,1170,1175,1180,1185,1190,1195,1200,1205,1210,1215,1220,1225,1230,1235,1240,1245,1250,1255,1260,1265,1270,1275,1280,1285,1290,1295,1300,1305,1310,1315,1320,1325,1330,1335,1340,1345,1350,1355,1360,1365,1370,1375,1380,1385,1390,1395,1400,1405,1410,1415,1420,1425,1430,1435,1440,1445,1450,1455,1460,1465,1470,1475,1480,1485,1490,1495,1500],"tree_info":[0,1,2,3,4,0,1,2,3,4,0,1,2,3,4,0,1,2,3,4,0,1,2,3,4,0,1,2,3,4,0,1,2,3,4,0,1,2,3,4,0,1,2,3,4,0,1,2,3,4,0,1,2,3,4,0,1,2,3,4,0,1,2,3,4,0,1,2,3,4,0,1,2,3,4,0,1,2,3,4,0,1,2,3,4,0,1,2,3,4,0,1,2,3,4,0,1,2,3,4,0,1,2,3,4,0,1,2,3,4,0,1,2,3,4,0,1,2,3,4,0,1,2,3,4,0,1,2,3,4,0,1,2,3,4,0,1,2,3,4,0,1,2,3,4,0,1,2,3,4,0,1,2,3,4,0,1,2,3,4,0,1,2,3,4,0,1,2,3,4,0,1,2,3,4,0,1,2,3,4,0,1,2,3,4,0,1,2,3,4,0,1,2,3,4,0,1,2,3,4,0,1,2,3,4,0,1,2,3,4,0,1,2,3,4,0,1,2,3,4,0,1,2,3,4,0,1,2,3,4,0,1,2,3,4,0,1,2,3,4,0,1,2,3,4,0,1,2,3,4,0,1,2,3,4,0,1,2,3,4,0,1,2,3,4,0,1,2,3,4,0,1,2,3,4,0,1,2,3,4,0,1,2,3,4,0,1,2,3,4,0,1,2,3,4,0,1,2,3,4,0,1,2,3,4,0,1,2,3,4,0,1,2,3,4,0,1,2,3,4,0,1,2,3,4,0,1,2,3,4,0,1,2,3,4,0,1,2,3,4,0,1,2,3,4,0,1,2,3,4,0,1,2,3,4,0,1,2,3,4,0,1,2,3,4,0,1,2,3,4,0,1,2,3,4,0,1,2,3,4,0,1,2,3,4,0,1,2,3,4,0,1,2,3,4,0,1,2,3,4,0,1,2,3,4,0,1,2,3,4,0,1,2,3,4,0,1,2,3,4,0,1,2,3,4,0,1,2,3,4,0,1,2,3,4,0,1,2,3,4,0,1,2,3,4,0,1,2,3,4,0,1,2,3,4,0,1,2,3,4,0,1,2,3,4,0,1,2,3,4,0,1,2,3,4,0,1,2,3,4,0,1,2,3,4,0,1,2,3,4,0,1,2,3,4,0,1,2,3,4,0,1,2,3,4,0,1,2,3,4,0,1,2,3,4,0,1,2,3,4,0,1,2,3,4,0,1,2,3,4,0,1,2,3,4,0,1,2,3,4,0,1,2,3,4,0,1,2,3,4,0,1,2,3,4,0,1,2,3,4,0,1,2,3,4,0,1,2,3,4,0,1,2,3,4,0,1,2,3,4,0,1,2,3,4,0,1,2,3,4,0,1,2,3,4,0,1,2,3,4,0,1,2,3,4,0,1,2,3,4,0,1,2,3,4,0,1,2,3,4,0,1,2,3,4,0,1,2,3,4,0,1,2,3,4,0,1,2,3,4,0,1,2,3,4,0,1,2,3,4,0,1,2,3,4,0,1,2,3,4,0,1,2,3,4,0,1,2,3,4,0,1,2,3,4,0,1,2,3,4,0,1,2,3,4,0,1,2,3,4,0,1,2,3,4,0,1,2,3,4,0,1,2,3,4,0,1,2,3,4,0,1,2,3,4,0,1,2,3,4,0,1,2,3,4,0,1,2,3,4,0,1,2,3,4,0,1,2,3,4,0,1,2,3,4,0,1,2,3,4,0,1,2,3,4,0,1,2,3,4,0,1,2,3,4,0,1,2,3,4,0,1,2,3,4,0,1,2,3,4,0,1,2,3,4,0,1,2,3,4,0,1,2,3,4,0,1,2,3,4,0,1,2,3,4,0,1,2,3,4,0,1,2,3,4,0,1,2,3,4,0,1,2,3,4,0,1,2,3,4,0,1,2,3,4,0,1,2,3,4,0,1,2,3,4,0,1,2,3,4,0,1,2,3,4,0,1,2,3,4,0,1,2,3,4,0,1,2,3,4,0,1,2,3,4,0,1,2,3,4,0,1,2,3,4,0,1,2,3,4,0,1,2,3,4,0,1,2,3,4,0,1,2,3,4,0,1,2,3,4,0,1,2,3,4,0,1,2,3,4,0,1,2,3,4,0,1,2,3,4,0,1,2,3,4,0,1,2,3,4,0,1,2,3,4,0,1,2,3,4,0,1,2,3,4,0,1,2,3,4,0,1,2,3,4,0,1,2,3,4,0,1,2,3,4,0,1,2,3,4,0,1,2,3,4,0,1,2,3,4,0,1,2,3,4,0,1,2,3,4,0,1,2,3,4,0,1,2,3,4,0,1,2,3,4,0,1,2,3,4,0,1,2,3,4,0,1,2,3,4,0,1,2,3,4,0,1,2,3,4,0,1,2,3,4,0,1,2,3,4,0,1,2,3,4,0,1,2,3,4,0,1,2,3,4,0,1,2,3,4,0,1,2,3,4,0,1,2,3,4,0,1,2,3,4,0,1,2,3,4,0,1,2,3,4,0,1,2,3,4,0,1,2,3,4,0,1,2,3,4,0,1,2,3,4,0,1,2,3,4,0,1,2,3,4,0,1,2,3,4,0,1,2,3,4,0,1,2,3,4,0,1,2,3,4,0,1,2,3,4,0,1,2,3,4,0,1,2,3,4,0,1,2,3,4,0,1,2,3,4,0,1,2,3,4,0,1,2,3,4,0,1,2,3,4,0,1,2,3,4,0,1,2,3,4,0,1,2,3,4,0,1,2,3,4,0,1,2,3,4,0,1,2,3,4,0,1,2,3,4,0,1,2,3,4,0,1,2,3,4,0,1,2,3,4,0,1,2,3,4,0,1,2,3,4,0,1,2,3,4,0,1,2,3,4,0,1,2,3,4,0,1,2,3,4,0,1,2,3,4,0,1,2,3,4,0,1,2,3,4,0,1,2,3,4,0,1,2,3,4,0,1,2,3,4,0,1,2,3,4,0,1,2,3,4,0,1,2,3,4,0,1,2,3,4,0,1,2,3,4,0,1,2,3,4,0,1,2,3,4,0,1,2,3,4,0,1,2,3,4,0,1,2,3,4,0,1,2,3,4,0,1,2,3,4,0,1,2,3,4,0,1,2,3,4,0,1,2,3,4,0,1,2,3,4,0,1,2,3,4,0,1,2,3,4,0,1,2,3,4,0,1,2,3,4,0,1,2,3,4,0,1,2,3,4,0,1,2,3,4,0,1,2,3,4,0,1,2,3,4,0,1,2,3,4,0,1,2,3,4,0,1,2,3,4,0,1,2,3,4,0,1,2,3,4,0,1,2,3,4,0,1,2,3,4,0,1,2,3,4,0,1,2,3,4,0,1,2,3,4,0,1,2,3,4,0,1,2,3,4,0,1,2,3,4,0,1,2,3,4,0,1,2,3,4,0,1,2,3,4],"trees":[{"base_weights":[1.6936405E-6,7.1474254E-1,-7.650339E-2,4.9740806E-1,1.3314156E-1,6.9635004E-1,2.0083457E-1,-1.5675228E-2,7.3457044E-1,1.08825915E-1,5.3457003E-2,9.426771E-1,5.278249E-1,-6.00671E-1,3.5743576E-1,5.6373622E-2,1.1856531E-1,2.5649737E-3,7.368913E-2,-6.843325E-2,-1.5675228E-2,8.8757604E-2,-3.0795003E-3],"categories":[],"categories_nodes":[],"categories_segments":[],"categories_sizes":[],"default_left":[0,0,0,0,0,0,0,0,0,0,0,0,0,0,0,0,0,0,0,0,0,0,0],"id":0,"left_children":[1,3,-1,5,-1,7,9,-1,11,-1,13,15,17,19,21,-1,-1,-1,-1,-1,-1,-1,-1],"loss_changes":[1.114099E2,1.3455395E1,0E0,4.549736E0,0E0,1.6530533E0,4.2991886E0,0E0,1.4523277E0,0E0,6.105028E0,1.2939968E0,2.6064954E0,2.5563765E-1,4.3189507E0,0E0,0E0,0E0,0E0,0E0,0E0,0E0,0E0],"parents":[2147483647,0,0,1,1,3,3,5,5,6,6,8,8,10,10,11,11,12,12,13,13,14,14],"right_children":[2,4,-1,6,-1,8,10,-1,12,-1,14,16,18,20,22,-1,-1,-1,-1,-1,-1,-1,-1],"split_conditions":[1E0,2.06602E1,-7.650339E-2,2.9383E2,1.3314156E-1,-9.975E-1,-9.998E-1,-1.5675228E-2,9.1E-3,1.08825915E-1,-2.53E-2,-3.533E-1,3.394E-1,1.51278E1,8.2808E0,5.6373622E-2,1.1856531E-1,2.5649737E-3,7.368913E-2,-6.843325E-2,-1.5675228E-2,8.8757604E-2,-3.0795003E-3],"split_indices":[15,0,0,6,0,1,1,0,1,0,1,1,1,0,0,0,0,0,0,0,0,0,0],"split_type":[0,0,0,0,0,0,0,0,0,0,0,0,0,0,0,0,0,0,0,0,0,0,0],"sum_hessian":[2.017481E2,1.0433654E2,9.7411545E1,7.848324E1,2.5853302E1,4.616661E1,3.2316628E1,1.8466644E0,4.4319946E1,3.6933289E0,2.8623299E1,2.0313309E1,2.4006638E1,8.771656E0,1.9851643E1,9.233322E0,1.1079987E1,7.3866577E0,1.661998E1,6.9249916E0,1.8466644E0,7.848324E0,1.2003319E1],"tree_param":{"num_deleted":"0","num_feature":"17","num_nodes":"23","size_leaf_vector":"1"}},{"base_weights":[-1.8817698E-6,5.1891005E-1,-5.549878E-2,8.670303E-1,-5.229904E-2,-2.0305583E-1,1.3665167E0,1.1741369E-1,-4.3102857E-1,8.859914E-1,1.8777548E0,-5.0569016E-2,-9.3435034E-2,1.3273236E0,-2.5300047E-1,-3.3754613E-2,2.2437418E0,1.977368E-2,-3.1619065E-2,4.244201E-2,1.9265833E-1,-4.2331886E-2,1.977368E-2,4.7293276E-2,2.4987125E-1],"categories":[],"categories_nodes":[],"categories_segments":[],"categories_sizes":[],"default_left":[0,0,0,0,0,0,0,0,0,0,0,0,0,0,0,0,0,0,0,0,0,0,0,0,0],"id":1,"left_children":[1,3,-1,5,-1,7,9,-1,11,13,15,-1,17,19,21,-1,23,-1,-1,-1,-1,-1,-1,-1,-1],"loss_changes":[2.6962944E1,1.8003012E1,0E0,1.9863234E1,0E0,4.440584E0,4.505371E0,0E0,2.4219346E-1,7.7945366E0,9.897797E0,0E0,2.7697283E-1,5.0553493E0,4.6629813E-1,0E0,3.2457542E0,0E0,0E0,0E0,0E0,0E0,0E0,0E0,0E0],"parents":[2147483647,0,0,1,1,3,3,5,5,6,6,8,8,9,9,10,10,12,12,13,13,14,14,16,16],"right_children":[2,4,-1,6,-1,8,10,-1,12,14,16,-1,18,20,22,-1,24,-1,-1,-1,-1,-1,-1,-1,-1],"split_conditions":[1E0,2.06602E1,-5.549878E-2,6.0339E0,-5.229904E-2,2.624E1,2.9383E2,1.1741369E-1,5.1203E0,1.33295E1,-9.998E-1,-5.0569016E-2,5.5129E0,9.1E-3,1.70193E1,-3.3754613E-2,9.8723E0,1.977368E-2,-3.1619065E-2,4.244201E-2,1.9265833E-1,-4.2331886E-2,1.977368E-2,4.7293276E-2,2.4987125E-1],"split_indices":[15,0,0,0,0,6,6,0,0,0,1,0,0,1,0,0,0,0,0,0,0,0,0,0,0],"split_type":[0,0,0,0,0,0,0,0,0,0,0,0,0,0,0,0,0,0,0,0,0,0,0,0,0],"sum_hessian":[9.162498E1,4.7385002E1,4.423998E1,3.5643585E1,1.1741416E1,1.1531748E1,2.4111837E1,1.0483407E0,1.0483407E1,1.3838098E1,1.0273739E1,8.177057E0,2.3063495E0,9.854403E0,3.9836948E0,1.467677E0,8.806062E0,1.0483407E0,1.2580088E0,4.612699E0,5.2417035E0,2.935354E0,1.0483407E0,1.467677E0,7.338385E0],"tree_param":{"num_deleted":"0","num_feature":"17","num_nodes":"25","size_leaf_vector":"1"}},{"base_weights":[-9.884533E-7,-5.7895925E-2,6.1936855E-1,1.864751E0,3.6171937E-1,6.1208284E-1,2.3222895E-1,1.9116478E-1,2.381804E-1,-2.98219E-2,1.0528467E-1,2.2256981E-1,3.9827283E-2,2.1261616E-1,-1.0517257E-1,-2.1194102E-2,1.4106183E-1],"categories":[],"categories_nodes":[],"categories_segments":[],"categories_sizes":[],"default_left":[0,0,0,0,0,0,0,0,0,0,0,0,0,0,0,0,0],"id":2,"left_children":[1,-1,3,5,7,9,-1,11,-1,-1,-1,-1,13,-1,15,-1,-1],"loss_changes":[4.090219E1,0E0,1.7008347E1,3.8549767E0,1.5704304E1,1.8470073E0,0E0,1.3563182E1,0E0,0E0,0E0,0E0,1.3016147E1,0E0,6.8520966E0,0E0,0E0],"parents":[2147483647,0,0,2,2,3,3,4,4,5,5,7,7,12,12,14,14],"right_children":[2,-1,4,6,8,10,-1,12,-1,-1,-1,-1,14,-1,16,-1,-1],"split_conditions":[1E0,-5.7895925E-2,7.3871E0,-5.751E-1,9.951E-1,-7.208E-1,2.3222895E-1,-9.988E-1,2.381804E-1,-2.98219E-2,1.0528467E-1,2.2256981E-1,-9.993E-1,2.1261616E-1,9.941E-1,-2.1194102E-2,1.4106183E-1],"split_indices":[15,0,0,2,2,1,0,2,0,0,0,0,1,0,1,0,0],"split_type":[0,0,0,0,0,0,0,0,0,0,0,0,0,0,0,0,0],"sum_hessian":[1.1206423E2,5.7955418E1,5.4108818E1,8.206077E0,4.590274E1,2.820839E0,5.3852377E0,4.333834E1,2.564399E0,1.0257596E0,1.7950792E0,2.0515192E0,4.1286823E1,1.7950792E0,3.9491745E1,3.7696663E1,1.7950792E0],"tree_param":{"num_deleted":"0","num_feature":"17","num_nodes":"17","size_leaf_vector":"1"}},{"base_weights":[-5.923975E-8,-5.8837175E-1,6.295865E-1,-6.6763284E-3,-6.0145926E-2,1.3836381E-1,1.0103312E0,5.842261E-1,-2.058425E-1,-4.1000493E-2,1.0962613E0,-2.3653546E-1,8.543069E-1,-5.5470806E-2,1.1968505E-1,1.5130045E0,6.28434E-1,8.949784E-3,-4.1000493E-2,5.3806838E-2,1.145815E0,4.0909553E-1,-4.6297576E-2,8.5739547E-1,1.6422659E0,-2.877717E-1,8.8082945E-1,-3.8366683E-2,5.2894242E-2,1.3417162E-1,8.949784E-3,-4.1000493E-2,7.7092834E-2,1.3457634E-1,-3.4994677E-2,5.2894242E-2,1.7102031E-1,-4.4849005E-2,8.949784E-3,-3.8366683E-2,1.05943255E-1],"categories":[],"categories_nodes":[],"categories_segments":[],"categories_sizes":[],"default_left":[0,0,0,0,0,0,0,0,0,0,0,0,0,0,0,0,0,0,0,0,0,0,0,0,0,0,0,0,0,0,0,0,0,0,0,0,0,0,0,0,0],"id":3,"left_children":[1,3,5,-1,-1,7,9,11,13,-1,15,17,19,-1,21,23,25,-1,-1,27,29,31,-1,33,35,37,39,-1,-1,-1,-1,-1,-1,-1,-1,-1,-1,-1,-1,-1,-1],"loss_changes":[5.2363842E1,4.5867157E-1,1.2632118E1,0E0,0E0,4.874193E0,5.125351E0,3.2513924E0,2.135619E0,0E0,6.1454544E0,2.7361095E-1,2.404179E0,0E0,1.917519E0,1.6305542E-1,4.6144094E0,0E0,0E0,1.0073738E0,1.4726677E0,2.5027566E0,0E0,3.504989E0,1.8409348E-1,3.3280763E-1,3.8012476E0,0E0,0E0,0E0,0E0,0E0,0E0,0E0,0E0,0E0,0E0,0E0,0E0,0E0,0E0],"parents":[2147483647,0,0,1,1,2,2,5,5,6,6,7,7,8,8,10,10,11,11,12,12,14,14,15,15,16,16,19,19,20,20,21,21,23,23,24,24,25,25,26,26],"right_children":[2,4,6,-1,-1,8,10,12,14,-1,16,18,20,-1,22,24,26,-1,-1,28,30,32,-1,34,36,38,40,-1,-1,-1,-1,-1,-1,-1,-1,-1,-1,-1,-1,-1,-1],"split_conditions":[1E0,1.6468E0,1.34703E1,-6.6763284E-3,-6.0145926E-2,-6.92E-1,-9.969E-1,-9.969E-1,4.061E-1,-4.1000493E-2,-3.909E-1,5.4279E0,6.0576E0,-5.5470806E-2,9.928E-1,-7.727E-1,1.5486E2,8.949784E-3,-4.1000493E-2,3.7609E2,1.18045E1,7.86E0,-4.6297576E-2,-8.817E-1,-7.199E-1,1.90651E1,-9.988E-1,-3.8366683E-2,5.2894242E-2,1.3417162E-1,8.949784E-3,-4.1000493E-2,7.7092834E-2,1.3457634E-1,-3.4994677E-2,5.2894242E-2,1.7102031E-1,-4.4849005E-2,8.949784E-3,-3.8366683E-2,1.05943255E-1],"split_indices":[15,0,0,0,0,1,1,1,2,0,1,0,0,0,2,1,6,0,0,6,0,0,0,1,2,0,2,0,0,0,0,0,0,0,0,0,0,0,0,0,0],"split_type":[0,0,0,0,0,0,0,0,0,0,0,0,0,0,0,0,0,0,0,0,0,0,0,0,0,0,0,0,0,0,0,0,0,0,0,0,0,0,0,0,0],"sum_hessian":[1.3935927E2,7.207138E1,6.728789E1,1.9133996E0,7.015798E1,2.9976593E1,3.731129E1,1.2755997E1,1.7220596E1,1.9133996E0,3.5397892E1,3.1889992E0,9.566998E0,7.9724984E0,9.248098E0,1.7539495E1,1.7858397E1,1.2755997E0,1.9133996E0,2.8700993E0,6.6968985E0,6.3779984E0,2.8700993E0,4.145699E0,1.3393797E1,3.8267992E0,1.4031597E1,1.5944996E0,1.2755997E0,5.421299E0,1.2755997E0,1.9133996E0,4.464599E0,2.8700993E0,1.2755997E0,1.2755997E0,1.2118197E1,2.5511994E0,1.2755997E0,1.5944996E0,1.2437098E1],"tree_param":{"num_deleted":"0","num_feature":"17","num_nodes":"41","size_leaf_vector":"1"}},{"base_weights":[-5.6616534E-7,-3.6033434E-1,3.8552496E-1,3.0337018E-1,-5.147105E-1,9.367958E-1,2.6249554E-2,1.0459977E0,-1.8289158E-1,-5.453793E-2,-2.6627204E-1,1.6320461E0,3.5445875E-1,2.506698E-1,-2.67567E-1,-6.242485E-3,1.7367041E-1,-4.8661325E-2,2.2120383E-1,6.2233943E-2,-5.1109146E-2,3.6607243E-2,1.8315284E-1,-4.4407602E-2,5.9028566E-1,-4.3150272E-2,3.6260074E-1,-4.6151888E-1,1.2333931E-1,1.0928627E-1,-4.1675318E-2,9.3032855E-1,-4.3150272E-2,7.336921E-1,1.3121639E-1,-5.3620417E-2,-1.0911641E-1,1.11013666E-1,-4.7268175E-2,4.163867E-2,1.363831E-1,1.1293918E-1,2.2120384E-2,-4.4407602E-2,3.3177786E-2,1.5181613E-2,-3.1870715E-2],"categories":[],"categories_nodes":[],"categories_segments":[],"categories_sizes":[],"default_left":[0,0,0,0,0,0,0,0,0,0,0,0,0,0,0,0,0,0,0,0,0,0,0,0,0,0,0,0,0,0,0,0,0,0,0,0,0,0,0,0,0,0,0,0,0,0,0],"id":4,"left_children":[1,3,5,7,9,11,13,15,17,-1,19,21,23,25,27,-1,-1,-1,29,-1,-1,-1,-1,-1,31,-1,33,35,37,-1,-1,39,-1,41,43,-1,45,-1,-1,-1,-1,-1,-1,-1,-1,-1,-1],"loss_changes":[1.7356163E1,6.772929E0,1.19300375E1,4.8191566E0,2.568035E-1,9.052231E0,2.5445104E0,4.104702E0,1.1626165E0,0E0,2.004463E0,1.9976063E0,2.9403992E0,1.8223977E0,1.3271697E0,0E0,0E0,0E0,2.8887973E0,0E0,0E0,0E0,0E0,0E0,4.3655057E0,0E0,1.5597162E0,2.4176693E-1,4.25665E0,0E0,0E0,1.409883E0,0E0,1.2080646E0,1.6584746E0,0E0,2.2615638E-1,0E0,0E0,0E0,0E0,0E0,0E0,0E0,0E0,0E0,0E0],"parents":[2147483647,0,0,1,1,2,2,3,3,4,4,5,5,6,6,7,7,8,8,10,10,11,11,12,12,13,13,14,14,18,18,24,24,26,26,27,27,28,28,31,31,33,33,34,34,36,36],"right_children":[2,4,6,8,10,12,14,16,18,-1,20,22,24,26,28,-1,-1,-1,30,-1,-1,-1,-1,-1,32,-1,34,36,38,-1,-1,40,-1,42,44,-1,46,-1,-1,-1,-1,-1,-1,-1,-1,-1,-1],"split_conditions":[1E0,5.0755E0,1.4324E2,-9.84E-2,7.0683E2,-3.99E-1,4.9603E2,-7.053E-1,1.43E-1,-5.453793E-2,9.8723E0,3.043E1,-7.372E-1,5.5129E0,7.0609E2,-6.242485E-3,1.7367041E-1,-4.8661325E-2,3.394E-1,6.2233943E-2,-5.1109146E-2,3.6607243E-2,1.8315284E-1,-4.4407602E-2,9.917E-1,-4.3150272E-2,-6.424E-1,7.071E-1,7.4503E2,1.0928627E-1,-4.1675318E-2,8.924E1,-4.3150272E-2,1.76374E1,1.9103E2,-5.3620417E-2,2.20498E1,1.11013666E-1,-4.7268175E-2,4.163867E-2,1.363831E-1,1.1293918E-1,2.2120384E-2,-4.4407602E-2,3.3177786E-2,1.5181613E-2,-3.1870715E-2],"split_indices":[15,0,6,1,6,2,6,1,1,0,0,6,1,0,6,0,0,0,1,0,0,0,0,0,2,0,1,2,6,0,0,6,0,0,6,0,0,0,0,0,0,0,0,0,0,0,0],"split_type":[0,0,0,0,0,0,0,0,0,0,0,0,0,0,0,0,0,0,0,0,0,0,0,0,0,0,0,0,0,0,0,0,0,0,0,0,0,0,0,0,0,0,0,0,0,0,0],"sum_hessian":[1.229383E2,6.3579075E1,5.9359226E1,1.181558E1,5.1763496E1,2.2787191E1,3.6572033E1,4.21985E0,7.5957303E0,4.5011734E1,6.7517605E0,9.564994E0,1.3222198E1,2.0817928E1,1.5754107E1,1.9692634E0,2.2505867E0,4.21985E0,3.3758802E0,1.1252934E0,5.6264668E0,1.6879401E0,7.8770537E0,2.8132334E0,1.0408964E1,2.5319102E0,1.8286016E1,1.0408964E1,5.3451433E0,1.1252934E0,2.2505867E0,7.8770537E0,2.5319102E0,6.1891136E0,1.2096904E1,8.158377E0,2.2505867E0,1.6879401E0,3.6572034E0,4.5011735E0,3.3758802E0,2.8132334E0,3.3758802E0,2.8132334E0,9.28367E0,1.1252934E0,1.1252934E0],"tree_param":{"num_deleted":"0","num_feature":"17","num_nodes":"47","size_leaf_vector":"1"}},{"base_weights":[-9.006604E-4,6.4876693E-1,-7.361101E-2,4.543788E-1,1.186473E-1,6.3172174E-1,1.8520388E-1,-1.6467022E-2,6.671513E-1,9.92289E-2,4.738379E-2,8.538566E-1,4.8010176E-1,-5.830877E-1,3.3304355E-1,5.0910927E-2,1.0738772E-1,1.5477979E-3,6.704395E-2,-6.659286E-2,-1.4989169E-2,8.0877766E-2,-2.6218225E-3],"categories":[],"categories_nodes":[],"categories_segments":[],"categories_sizes":[],"default_left":[0,0,0,0,0,0,0,0,0,0,0,0,0,0,0,0,0,0,0,0,0,0,0],"id":5,"left_children":[1,3,-1,5,-1,7,9,-1,11,-1,13,15,17,19,21,-1,-1,-1,-1,-1,-1,-1,-1],"loss_changes":[9.704061E1,1.0734657E1,0E0,3.74201E0,0E0,1.4731941E0,3.681714E0,0E0,1.2125263E0,0E0,5.540061E0,1.1194286E0,2.244039E0,2.4537134E-1,3.6212819E0,0E0,0E0,0E0,0E0,0E0,0E0,0E0,0E0],"parents":[2147483647,0,0,1,1,3,3,5,5,6,6,8,8,10,10,11,11,12,12,13,13,14,14],"right_children":[2,4,-1,6,-1,8,10,-1,12,-1,14,16,18,20,22,-1,-1,-1,-1,-1,-1,-1,-1],"split_conditions":[1E0,2.06602E1,-7.361101E-2,2.9383E2,1.186473E-1,-9.975E-1,-9.998E-1,-1.6467022E-2,9.1E-3,9.92289E-2,-2.53E-2,-3.533E-1,3.394E-1,1.51278E1,8.2808E0,5.0910927E-2,1.0738772E-1,1.5477979E-3,6.704395E-2,-6.659286E-2,-1.4989169E-2,8.0877766E-2,-2.6218225E-3],"split_indices":[15,0,0,6,0,1,1,0,1,0,1,1,1,0,0,0,0,0,0,0,0,0,0],"split_type":[0,0,0,0,0,0,0,0,0,0,0,0,0,0,0,0,0,0,0,0,0,0,0],"sum_hessian":[2.0116628E2,1.0685843E2,9.4307846E1,7.984015E1,2.7018274E1,4.73182E1,3.2521954E1,1.8600377E0,4.545816E1,3.8392313E0,2.868272E1,2.0965929E1,2.4492231E1,8.618931E0,2.006379E1,9.458867E0,1.1507062E1,7.4319043E0,1.7060328E1,6.7843084E0,1.834622E0,8.094216E0,1.1969574E1],"tree_param":{"num_deleted":"0","num_feature":"17","num_nodes":"23","size_leaf_vector":"1"}},{"base_weights":[-3.0221284E-4,4.7660536E-1,-5.5094566E-2,7.708688E-1,-5.158611E-2,-1.9378842E-1,1.1692172E0,1.0855444E-1,-4.2388746E-1,-3.2098852E-3,1.2597139E0,-5.0001126E-2,-9.076782E-2,2.7932073E-3,1.3418314E0,-3.1527054E-2,2.016845E-2,8.607534E-2,1.79168E-1],"categories":[],"categories_nodes":[],"categories_segments":[],"categories_sizes":[],"default_left":[0,0,0,0,0,0,0,0,0,0,0,0,0,0,0,0,0,0,0],"id":6,"left_children":[1,3,-1,5,-1,7,9,-1,11,-1,13,-1,15,-1,17,-1,-1,-1,-1],"loss_changes":[2.4561596E1,1.50354E1,0E0,1.5236113E1,0E0,4.073098E0,3.0612488E0,0E0,2.3663986E-1,0E0,2.5787659E0,0E0,2.7962935E-1,0E0,3.7008286E0,0E0,0E0,0E0,0E0],"parents":[2147483647,0,0,1,1,3,3,5,5,6,6,8,8,10,10,12,12,14,14],"right_children":[2,4,-1,6,-1,8,10,-1,12,-1,14,-1,16,-1,18,-1,-1,-1,-1],"split_conditions":[1E0,2.06602E1,-5.5094566E-2,6.0339E0,-5.158611E-2,2.624E1,-9.999E-1,1.0855444E-1,5.1203E0,-3.2098852E-3,-9.998E-1,-5.0001126E-2,5E-4,2.7932073E-3,2.9383E2,-3.1527054E-2,2.016845E-2,8.607534E-2,1.79168E-1],"split_indices":[15,0,0,0,0,6,2,0,0,0,1,0,2,0,6,0,0,0,0],"split_type":[0,0,0,0,0,0,0,0,0,0,0,0,0,0,0,0,0,0,0],"sum_hessian":[9.153029E1,4.912125E1,4.2409035E1,3.8059883E1,1.1061365E1,1.1273362E1,2.6786522E1,1.1517874E0,1.0121575E1,1.9217087E0,2.4864813E1,7.8310447E0,2.2905302E0,1.6377873E0,2.3227026E1,1.2516613E0,1.0388689E0,1.2631764E1,1.0595262E1],"tree_param":{"num_deleted":"0","num_feature":"17","num_nodes":"19","size_leaf_vector":"1"}},{"base_weights":[2.6812102E-3,-5.7217505E-2,5.6257844E-1,1.5460992E0,3.3606562E-1,4.5220527E-1,1.8200667E-1,1.7928897E-1,1.9691502E-1,1.0840245E-1,-3.3304457E-2,1.8786533E-1,3.676264E-2,1.8098181E-1,-1.02309555E-1,-1.8975021E-2,1.5386713E-1],"categories":[],"categories_nodes":[],"categories_segments":[],"categories_sizes":[],"default_left":[0,0,0,0,0,0,0,0,0,0,0,0,0,0,0,0,0],"id":7,"left_children":[1,-1,3,5,7,9,-1,11,-1,-1,-1,-1,13,-1,15,-1,-1],"loss_changes":[3.651287E1,0E0,1.2282896E1,2.317665E0,1.1933065E1,2.0625687E0,0E0,1.0802027E1,0E0,0E0,0E0,0E0,1.064787E1,0E0,6.0732923E0,0E0,0E0],"parents":[2147483647,0,0,2,2,3,3,4,4,5,5,7,7,12,12,14,14],"right_children":[2,-1,4,6,8,10,-1,12,-1,-1,-1,-1,14,-1,16,-1,-1],"split_conditions":[1E0,-5.7217505E-2,7.3871E0,-6.027E-1,9.951E-1,4.5367E0,1.8200667E-1,-9.988E-1,1.9691502E-1,1.0840245E-1,-3.3304457E-2,1.8786533E-1,-9.993E-1,1.8098181E-1,9.974E-1,-1.8975021E-2,1.5386713E-1],"split_indices":[15,0,0,2,2,0,0,2,0,0,0,0,1,0,1,0,0],"split_type":[0,0,0,0,0,0,0,0,0,0,0,0,0,0,0,0,0],"sum_hessian":[1.11443085E2,5.4976166E1,5.6466915E1,9.4798155E0,4.69871E1,2.429584E0,7.050232E0,4.3884007E1,3.1030939E0,1.1354814E0,1.2941027E0,2.4531853E0,4.143082E1,2.1395688E0,3.9291252E1,3.814314E1,1.1481123E0],"tree_param":{"num_deleted":"0","num_feature":"17","num_nodes":"17","size_leaf_vector":"1"}},{"base_weights":[-1.1687238E-3,-5.7723695E-1,5.585152E-1,-6.2407944E-3,-5.907327E-2,1.215272E-1,8.79104E-1,5.267969E-1,-2.0463426E-1,-4.0341325E-2,9.5030004E-1,-2.3216203E-1,7.623282E-1,-5.4775596E-2,1.0279925E-1,1.2897243E0,5.529799E-1,-4.070248E-2,9.358195E-3,4.250031E-1,1.5064561E-1,3.6557627E-1,-4.5484565E-2,1.8153517E-2,1.3375387E0,-2.8426957E-1,7.6846564E-1,1.03834204E-1,-3.0023977E-2,-4.02855E-2,6.832548E-2,7.597727E-2,1.4584897E-1,9.416527E-3,-4.4640172E-2,-3.76399E-2,9.168483E-2],"categories":[],"categories_nodes":[],"categories_segments":[],"categories_sizes":[],"default_left":[0,0,0,0,0,0,0,0,0,0,0,0,0,0,0,0,0,0,0,0,0,0,0,0,0,0,0,0,0,0,0,0,0,0,0,0,0],"id":8,"left_children":[1,3,5,-1,-1,7,9,11,13,-1,15,17,19,-1,21,23,25,-1,-1,27,-1,29,-1,-1,31,33,35,-1,-1,-1,-1,-1,-1,-1,-1,-1,-1],"loss_changes":[4.5548973E1,4.4682884E-1,9.931841E0,0E0,0E0,4.2694597E0,4.142874E0,2.7366617E0,1.9724617E0,0E0,4.58757E0,2.7492362E-1,2.1613917E0,0E0,1.6935736E0,8.4059906E-1,3.8013196E0,0E0,0E0,4.347556E0,0E0,2.139971E0,0E0,0E0,2.5064468E-1,3.3623564E-1,3.0740309E0,0E0,0E0,0E0,0E0,0E0,0E0,0E0,0E0,0E0,0E0],"parents":[2147483647,0,0,1,1,2,2,5,5,6,6,7,7,8,8,10,10,11,11,12,12,14,14,15,15,16,16,19,19,21,21,24,24,25,25,26,26],"right_children":[2,4,6,-1,-1,8,10,12,14,-1,16,18,20,-1,22,24,26,-1,-1,28,-1,30,-1,-1,32,34,36,-1,-1,-1,-1,-1,-1,-1,-1,-1,-1],"split_conditions":[1E0,1.6468E0,1.34703E1,-6.2407944E-3,-5.907327E-2,-6.92E-1,-9.969E-1,-9.969E-1,4.061E-1,-4.0341325E-2,-3.909E-1,5E-4,4.8047E2,-5.4775596E-2,9.928E-1,-7.312E-1,1.5486E2,-4.070248E-2,9.358195E-3,5.593E1,1.5064561E-1,7.86E0,-4.5484565E-2,1.8153517E-2,-7.727E-1,-6.98E-1,-9.988E-1,1.03834204E-1,-3.0023977E-2,-4.02855E-2,6.832548E-2,7.597727E-2,1.4584897E-1,9.416527E-3,-4.4640172E-2,-3.76399E-2,9.168483E-2],"split_indices":[15,0,0,0,0,1,1,1,2,0,1,2,6,0,2,2,6,0,0,6,0,0,0,0,1,2,2,0,0,0,0,0,0,0,0,0,0],"split_type":[0,0,0,0,0,0,0,0,0,0,0,0,0,0,0,0,0,0,0,0,0,0,0,0,0,0,0,0,0,0,0,0,0,0,0,0,0],"sum_hessian":[1.3927394E2,6.8616936E1,7.0657005E1,1.896447E0,6.672049E1,3.048399E1,4.0173016E1,1.3319187E1,1.7164804E1,1.8674111E0,3.8305603E1,3.1578546E0,1.0161332E1,7.7421765E0,9.422627E0,1.944661E1,1.8858994E1,1.8924462E0,1.2654083E0,8.0729E0,2.088432E0,6.638716E0,2.7839108E0,1.0027437E0,1.8443867E1,3.794934E0,1.5064059E1,4.1399894E0,3.932911E0,1.8633485E0,4.7753677E0,4.4532027E0,1.3990664E1,1.2639463E0,2.5309877E0,1.5520844E0,1.3511974E1],"tree_param":{"num_deleted":"0","num_feature":"17","num_nodes":"37","size_leaf_vector":"1"}},{"base_weights":[5.8625295E-4,-3.470922E-1,3.4864518E-1,2.8746682E-1,-5.038777E-1,6.395829E-1,-1.8153007E-1,9.3900484E-1,-1.736485E-1,-5.355209E-1,-2.531669E-1,1.0612909E0,3.0050784E-1,3.5195988E-2,-5.321675E-2,-7.575404E-3,1.5447803E-1,-4.7874417E-2,2.1826707E-1,-5.7580967E-2,-4.0002027E-1,6.0219575E-2,-5.0232537E-2,-4.0843938E-2,1.2801256E0,4.3143767E-1,-4.50007E-2,-3.5788795E-1,8.1865287E-1,1.02460586E-1,-4.0950052E-2,6.551831E-2,-5.461793E-2,1.5171632E0,4.9329424E-1,-1.3051848E-1,7.0141155E-1,2.1605145E-2,-5.189172E-2,1.8092063E-1,1.24550276E-1,4.5105916E-2,1.6275488E-1,-3.826602E-2,1.05372824E-1,4.5895893E-2,-3.4384843E-2,1.0201094E-1,1.3095322E-2,-3.5414487E-2,3.4606338E-2,-3.1881314E-2,5.842327E-2],"categories":[],"categories_nodes":[],"categories_segments":[],"categories_sizes":[],"default_left":[0,0,0,0,0,0,0,0,0,0,0,0,0,0,0,0,0,0,0,0,0,0,0,0,0,0,0,0,0,0,0,0,0,0,0,0,0,0,0,0,0,0,0,0,0,0,0,0,0,0,0,0,0],"id":9,"left_children":[1,3,5,7,9,11,13,15,17,19,21,23,25,27,-1,-1,-1,-1,29,-1,31,-1,-1,-1,33,35,-1,37,39,-1,-1,-1,-1,41,43,45,47,49,-1,51,-1,-1,-1,-1,-1,-1,-1,-1,-1,-1,-1,-1,-1],"loss_changes":[1.5087537E1,6.3503776E0,9.726332E0,4.067061E0,2.6409626E-1,5.4649467E0,1.7554929E0,3.5233955E0,1.1152536E0,8.975029E-3,1.9099796E0,6.1941032E0,2.53446E0,4.9316363E0,0E0,0E0,0E0,0E0,2.6402323E0,0E0,2.4125206E0,0E0,0E0,0E0,2.1591911E0,3.2455516E0,0E0,6.666583E-1,1.2273488E0,0E0,0E0,0E0,0E0,6.1907196E-1,2.9024549E0,1.1122196E0,2.4479709E0,6.2916183E-1,0E0,8.5331696E-1,0E0,0E0,0E0,0E0,0E0,0E0,0E0,0E0,0E0,0E0,0E0,0E0,0E0],"parents":[2147483647,0,0,1,1,2,2,3,3,4,4,5,5,6,6,7,7,8,8,9,9,10,10,11,11,12,12,13,13,18,18,20,20,24,24,25,25,27,27,28,28,33,33,34,34,35,35,36,36,37,37,39,39],"right_children":[2,4,6,8,10,12,14,16,18,20,22,24,26,28,-1,-1,-1,-1,30,-1,32,-1,-1,-1,34,36,-1,38,40,-1,-1,-1,-1,42,44,46,48,50,-1,52,-1,-1,-1,-1,-1,-1,-1,-1,-1,-1,-1,-1,-1],"split_conditions":[1E0,5.0755E0,3.8474E2,-9.84E-2,7.0683E2,-3.99E-1,2.42519E1,1.5486E2,1.43E-1,6.364E-1,7.0805E2,-9.854E-1,9.94E-1,1.60974E1,-5.321675E-2,-7.575404E-3,1.5447803E-1,-4.7874417E-2,3.394E-1,-5.7580967E-2,7.733E-1,6.0219575E-2,-5.0232537E-2,-4.0843938E-2,1.5486E2,-7.114E-1,-4.50007E-2,4.8047E2,8.4E-2,1.02460586E-1,-4.0950052E-2,6.551831E-2,-5.461793E-2,3.043E1,2.1435E2,-9.969E-1,-1.092E-1,4.3352E2,-5.189172E-2,2.0721E1,1.24550276E-1,4.5105916E-2,1.6275488E-1,-3.826602E-2,1.05372824E-1,4.5895893E-2,-3.4384843E-2,1.0201094E-1,1.3095322E-2,-3.5414487E-2,3.4606338E-2,-3.1881314E-2,5.842327E-2],"split_indices":[15,0,6,1,6,2,0,6,1,2,6,2,2,0,0,0,0,0,1,0,2,0,0,0,6,1,0,6,2,0,0,0,0,6,6,1,1,6,0,0,0,0,0,0,0,0,0,0,0,0,0,0,0],"split_type":[0,0,0,0,0,0,0,0,0,0,0,0,0,0,0,0,0,0,0,0,0,0,0,0,0,0,0,0,0,0,0,0,0,0,0,0,0,0,0,0,0,0,0,0,0,0,0,0,0,0,0,0,0],"sum_hessian":[1.22677414E2,6.137364E1,6.1303772E1,1.199454E1,4.93791E1,3.9449306E1,2.1854467E1,4.5413756E0,7.4531646E0,4.2836517E1,6.542583E0,1.6632942E1,2.2816364E1,1.4062299E1,7.7921677E0,2.0246873E0,2.5166886E0,4.066194E0,3.3869708E0,3.0514164E1,1.2322352E1,1.1562499E0,5.386333E0,2.0433102E0,1.4589632E1,1.9789213E1,3.0271506E0,9.725778E0,4.3365216E0,1.2059022E0,2.1810684E0,1.0754449E0,1.1246908E1,1.0498657E1,4.0909753E0,6.5895276E0,1.3199685E1,3.1553903E0,6.570387E0,2.309652E0,2.0268698E0,1.4622703E0,9.0363865E0,1.7199355E0,2.3710396E0,1.4450722E0,5.1444554E0,7.9628525E0,5.236833E0,1.4197286E0,1.7356616E0,1.1250918E0,1.1845603E0],"tree_param":{"num_deleted":"0","num_feature":"17","num_nodes":"53","size_leaf_vector":"1"}},{"base_weights":[-2.1043527E-3,5.9370524E-1,-7.11137E-2,4.1760692E-1,1.0744015E-1,5.7678795E-1,1.722017E-1,4.6300387E-1,8.883727E-1,9.157754E-2,4.2697743E-2,-4.6343468E-2,5.109691E-1,1.004258E-1,3.8963643E-1,-5.6583464E-1,3.118463E-1,5.7674803E-2,-3.0048236E-2,-9.88004E-3,7.195811E-2,-6.4778954E-2,-1.442712E-2,7.4487835E-2,-2.228401E-3],"categories":[],"categories_nodes":[],"categories_segments":[],"categories_sizes":[],"default_left":[0,0,0,0,0,0,0,0,0,0,0,0,0,0,0,0,0,0,0,0,0,0,0,0,0],"id":10,"left_children":[1,3,-1,5,-1,7,9,11,13,-1,15,-1,17,-1,19,21,23,-1,-1,-1,-1,-1,-1,-1,-1],"loss_changes":[8.50917E1,8.816528E0,0E0,3.0938673E0,0E0,1.3314323E0,3.1951492E0,1.9296494E0,3.0576038E-1,0E0,5.0332913E0,0E0,2.1320019E0,0E0,7.0088625E-1,2.3299289E-1,3.0847003E0,0E0,0E0,0E0,0E0,0E0,0E0,0E0,0E0],"parents":[2147483647,0,0,1,1,3,3,5,5,6,6,7,7,8,8,10,10,12,12,14,14,15,15,16,16],"right_children":[2,4,-1,6,-1,8,10,12,14,-1,16,-1,18,-1,20,22,24,-1,-1,-1,-1,-1,-1,-1,-1],"split_conditions":[1E0,2.06602E1,-7.11137E-2,2.9383E2,1.0744015E-1,1.22165E1,-9.998E-1,-9.975E-1,1.69086E1,9.157754E-2,-2.53E-2,-4.6343468E-2,1E0,1.004258E-1,1.76008E1,1.51278E1,8.2808E0,5.7674803E-2,-3.0048236E-2,-9.88004E-3,7.195811E-2,-6.4778954E-2,-1.442712E-2,7.4487835E-2,-2.228401E-3],"split_indices":[15,0,0,6,0,0,1,1,0,0,1,0,1,0,0,0,0,0,0,0,0,0,0,0,0],"split_type":[0,0,0,0,0,0,0,0,0,0,0,0,0,0,0,0,0,0,0,0,0,0,0,0,0],"sum_hessian":[1.9942561E2,1.08453415E2,9.09722E1,8.074284E1,2.7710577E1,4.815619E1,3.258665E1,3.7095627E1,1.1060563E1,3.9330163E0,2.8653633E1,1.3996567E0,3.5695972E1,8.15263E0,2.9079332E0,8.4488535E0,2.020478E1,3.328687E1,2.409104E0,1.4548242E0,1.4531089E0,6.624389E0,1.8244647E0,8.264588E0,1.1940192E1],"tree_param":{"num_deleted":"0","num_feature":"17","num_nodes":"25","size_leaf_vector":"1"}},{"base_weights":[-6.8819214E-4,4.3875098E-1,-5.4696538E-2,6.898328E-1,-5.088467E-2,-1.8465456E-1,1.0142658E0,1.0059754E-1,-4.1666818E-1,-2.4691985E-3,1.0842556E0,-4.9436E-2,-8.7879896E-2,1.2493931E0,4.413103E-1,2.0100234E-2,-3.125093E-2,4.2371385E-2,1.3867699E-1,1.2358558E-1,-1.0122555E-2],"categories":[],"categories_nodes":[],"categories_segments":[],"categories_sizes":[],"default_left":[0,0,0,0,0,0,0,0,0,0,0,0,0,0,0,0,0,0,0,0,0],"id":11,"left_children":[1,3,-1,5,-1,7,9,-1,11,-1,13,-1,15,17,19,-1,-1,-1,-1,-1,-1],"loss_changes":[2.238325E1,1.264575E1,0E0,1.1897614E1,0E0,3.7382817E0,2.2271805E0,0E0,2.3148358E-1,0E0,2.4610596E0,0E0,2.7522656E-1,1.9110527E0,3.2909782E0,0E0,0E0,0E0,0E0,0E0,0E0],"parents":[2147483647,0,0,1,1,3,3,5,5,6,6,8,8,10,10,12,12,13,13,14,14],"right_children":[2,4,-1,6,-1,8,10,-1,12,-1,14,-1,16,18,20,-1,-1,-1,-1,-1,-1],"split_conditions":[1E0,2.06602E1,-5.4696538E-2,6.0339E0,-5.088467E-2,2.624E1,-9.999E-1,1.0059754E-1,5.1203E0,-2.4691985E-3,1.47818E1,-4.9436E-2,5.5129E0,-5.76E-1,-4.986E-1,2.0100234E-2,-3.125093E-2,4.2371385E-2,1.3867699E-1,1.2358558E-1,-1.0122555E-2],"split_indices":[15,0,0,0,0,6,2,0,0,0,0,0,0,1,1,0,0,0,0,0,0],"split_type":[0,0,0,0,0,0,0,0,0,0,0,0,0,0,0,0,0,0,0,0,0],"sum_hessian":[9.124226E1,5.0674915E1,4.056735E1,4.0275314E1,1.0399599E1,1.101526E1,2.9260056E1,1.2524068E0,9.762853E0,1.8875585E0,2.7372496E1,7.489518E0,2.273335E0,2.1028255E1,6.3442407E0,1.0404536E0,1.2328815E0,3.582224E0,1.7446032E1,2.0557146E0,4.288526E0],"tree_param":{"num_deleted":"0","num_feature":"17","num_nodes":"21","size_leaf_vector":"1"}},{"base_weights":[5.0465004E-3,-5.6579422E-2,5.1452136E-1,1.3239024E0,3.127916E-1,5.0378996E-1,1.5709293E-1,1.6831036E-1,1.6744168E-1,-4.0598675E-3,9.697872E-2,1.608501E-1,3.4461424E-2,1.5668671E-1,-9.8663285E-2,-2.0131653E-2,1.17037654E-1],"categories":[],"categories_nodes":[],"categories_segments":[],"categories_sizes":[],"default_left":[0,0,0,0,0,0,0,0,0,0,0,0,0,0,0,0,0],"id":12,"left_children":[1,-1,3,5,7,9,-1,11,-1,-1,-1,-1,13,-1,15,-1,-1],"loss_changes":[3.2716583E1,0E0,9.290538E0,1.5483093E0,9.335855E0,1.091027E0,0E0,8.678845E0,0E0,0E0,0E0,0E0,8.820302E0,0E0,5.4496136E0,0E0,0E0],"parents":[2147483647,0,0,2,2,3,3,4,4,5,5,7,7,12,12,14,14],"right_children":[2,-1,4,6,8,10,-1,12,-1,-1,-1,-1,14,-1,16,-1,-1],"split_conditions":[1E0,-5.6579422E-2,7.3871E0,-5.751E-1,9.951E-1,-6.92E-1,1.5709293E-1,-9.988E-1,1.6744168E-1,-4.0598675E-3,9.697872E-2,1.608501E-1,-9.993E-1,1.5668671E-1,9.941E-1,-2.0131653E-2,1.17037654E-1],"split_indices":[15,0,0,2,2,1,0,2,0,0,0,0,1,0,1,0,0],"split_type":[0,0,0,0,0,0,0,0,0,0,0,0,0,0,0,0,0],"sum_hessian":[1.1049323E2,5.2056274E1,5.843696E1,1.0549094E1,4.7887863E1,3.145538E0,7.403556E0,4.4309788E1,3.5780752E0,1.8717704E0,1.2737678E0,2.8310385E0,4.1478752E1,2.454536E0,3.9024216E1,3.688216E1,2.1420531E0],"tree_param":{"num_deleted":"0","num_feature":"17","num_nodes":"17","size_leaf_vector":"1"}},{"base_weights":[-1.941985E-3,-5.667728E-1,5.006179E-1,-5.6545553E-3,-5.8074873E-2,1.08705305E-1,7.749369E-1,4.824892E-1,-2.0274001E-1,-3.9782327E-2,8.3576584E-1,-2.2537369E-1,6.909541E-1,-5.4081917E-2,8.903084E-2,1.1220219E0,4.9048892E-1,-4.00657E-2,9.495939E-3,3.860049E-1,1.3430685E-1,3.300284E-1,-4.4678383E-2,1.6926274E-2,1.1604302E0,-2.7913257E-1,6.769799E-1,9.303554E-2,-2.96724E-2,-3.9488092E-2,6.1205816E-2,1.20388605E-1,3.7216004E-2,-4.4172734E-2,9.495187E-3,-3.6997013E-2,8.0351315E-2],"categories":[],"categories_nodes":[],"categories_segments":[],"categories_sizes":[],"default_left":[0,0,0,0,0,0,0,0,0,0,0,0,0,0,0,0,0,0,0,0,0,0,0,0,0,0,0,0,0,0,0,0,0,0,0,0,0],"id":13,"left_children":[1,3,5,-1,-1,7,9,11,13,-1,15,17,19,-1,21,23,25,-1,-1,27,-1,29,-1,-1,31,33,35,-1,-1,-1,-1,-1,-1,-1,-1,-1,-1],"loss_changes":[3.9918045E1,4.392891E-1,7.9162216E0,0E0,0E0,3.8002267E0,3.4437122E0,2.3324757E0,1.8289081E0,0E0,3.579544E0,2.6881573E-1,1.796567E0,0E0,1.5096052E0,6.111412E-1,3.1623425E0,0E0,0E0,3.745471E0,0E0,1.846842E0,0E0,0E0,2.727623E-1,3.3078596E-1,2.5450406E0,0E0,0E0,0E0,0E0,0E0,0E0,0E0,0E0,0E0,0E0],"parents":[2147483647,0,0,1,1,2,2,5,5,6,6,7,7,8,8,10,10,11,11,12,12,14,14,15,15,16,16,19,19,21,21,24,24,25,25,26,26],"right_children":[2,4,6,-1,-1,8,10,12,14,-1,16,18,20,-1,22,24,26,-1,-1,28,-1,30,-1,-1,32,34,36,-1,-1,-1,-1,-1,-1,-1,-1,-1,-1],"split_conditions":[1E0,1.6468E0,1.34703E1,-5.6545553E-3,-5.8074873E-2,-6.92E-1,-9.969E-1,-9.969E-1,4.061E-1,-3.9782327E-2,-3.909E-1,5E-4,4.8047E2,-5.4081917E-2,9.928E-1,-7.312E-1,1.5486E2,-4.00657E-2,9.495939E-3,5.593E1,1.3430685E-1,7.86E0,-4.4678383E-2,1.6926274E-2,3.18596E1,7.011E-1,-9.988E-1,9.303554E-2,-2.96724E-2,-3.9488092E-2,6.1205816E-2,1.20388605E-1,3.7216004E-2,-4.4172734E-2,9.495187E-3,-3.6997013E-2,8.0351315E-2],"split_indices":[15,0,0,0,0,1,1,1,2,0,1,2,6,0,2,2,6,0,0,6,0,0,0,0,0,1,2,0,0,0,0,0,0,0,0,0,0],"split_type":[0,0,0,0,0,0,0,0,0,0,0,0,0,0,0,0,0,0,0,0,0,0,0,0,0,0,0,0,0,0,0,0,0,0,0,0,0],"sum_hessian":[1.386256E2,6.520897E1,7.341662E1,1.8730837E0,6.3335884E1,3.0803999E1,4.261262E1,1.375119E1,1.7052809E1,1.8280681E0,4.0784554E1,3.1099477E0,1.0641243E1,7.504111E0,9.548698E0,2.106813E1,1.9716421E1,1.8479923E0,1.2619555E0,8.335315E0,2.3059275E0,6.851229E0,2.697469E0,1.0259228E0,2.0042208E1,3.74882E0,1.5967601E1,4.435845E0,3.89947E0,1.8068612E0,5.0443683E0,1.8495344E1,1.5468647E0,2.4870207E0,1.2617993E0,1.5142906E0,1.4453311E1],"tree_param":{"num_deleted":"0","num_feature":"17","num_nodes":"37","size_leaf_vector":"1"}},{"base_weights":[1.5744163E-3,-3.3426368E-1,3.1779546E-1,2.7241573E-1,-4.9325484E-1,5.743124E-1,-1.7607608E-1,8.4822834E-1,-1.6461293E-1,-5.260283E-1,-2.3916505E-1,9.335745E-1,2.7305937E-1,3.366173E-2,-5.258121E-2,-7.217005E-3,1.3509682E-1,-4.7099635E-2,2.1548754E-1,-5.6798704E-2,-3.8684562E-1,5.8271576E-2,-4.9316216E-2,-4.0306754E-2,1.115781E0,3.914693E-1,-4.4308867E-2,-3.5145056E-1,7.611035E-1,9.634781E-2,-4.0224887E-2,6.333718E-2,-5.3777974E-2,1.3044941E0,4.5112497E-1,-1.2991124E-1,6.3022786E-1,1.503556E-2,-5.1248033E-2,1.697872E-1,1.14333E-1,1.3925786E-1,1.6238235E-2,-3.8023204E-2,9.554457E-2,4.2917427E-2,-3.3907402E-2,9.054277E-2,1.1577937E-2,-3.503718E-2,3.2343693E-2,-3.15586E-2,5.514961E-2],"categories":[],"categories_nodes":[],"categories_segments":[],"categories_sizes":[],"default_left":[0,0,0,0,0,0,0,0,0,0,0,0,0,0,0,0,0,0,0,0,0,0,0,0,0,0,0,0,0,0,0,0,0,0,0,0,0,0,0,0,0,0,0,0,0,0,0,0,0,0,0,0,0],"id":14,"left_children":[1,3,5,7,9,11,13,15,17,19,21,23,25,27,-1,-1,-1,-1,29,-1,31,-1,-1,-1,33,35,-1,37,39,-1,-1,-1,-1,41,43,45,47,49,-1,51,-1,-1,-1,-1,-1,-1,-1,-1,-1,-1,-1,-1,-1],"loss_changes":[1.3174897E1,5.9377236E0,8.195477E0,3.4456449E0,2.741394E-1,4.321643E0,1.6759756E0,2.795722E0,1.0688187E0,2.3843765E-2,1.815628E0,5.046091E0,2.2436767E0,4.489785E0,0E0,0E0,0E0,0E0,2.417521E0,0E0,2.311081E0,0E0,0E0,0E0,1.5280132E0,2.7558367E0,0E0,6.2965024E-1,1.0564268E0,0E0,0E0,0E0,0E0,1.0428581E0,2.5687184E0,1.0314631E0,2.0052643E0,5.853403E-1,0E0,7.9409784E-1,0E0,0E0,0E0,0E0,0E0,0E0,0E0,0E0,0E0,0E0,0E0,0E0,0E0],"parents":[2147483647,0,0,1,1,2,2,3,3,4,4,5,5,6,6,7,7,8,8,9,9,10,10,11,11,12,12,13,13,18,18,20,20,24,24,25,25,27,27,28,28,33,33,34,34,35,35,36,36,37,37,39,39],"right_children":[2,4,6,8,10,12,14,16,18,20,22,24,26,28,-1,-1,-1,-1,30,-1,32,-1,-1,-1,34,36,-1,38,40,-1,-1,-1,-1,42,44,46,48,50,-1,52,-1,-1,-1,-1,-1,-1,-1,-1,-1,-1,-1,-1,-1],"split_conditions":[1E0,5.0755E0,3.8474E2,-9.84E-2,7.0683E2,-3.99E-1,2.42519E1,-7.053E-1,1.43E-1,6.364E-1,9.8723E0,-9.854E-1,9.94E-1,1.60974E1,-5.258121E-2,-7.217005E-3,1.3509682E-1,-4.7099635E-2,3.394E-1,-5.6798704E-2,7.733E-1,5.8271576E-2,-4.9316216E-2,-4.0306754E-2,1.5486E2,-7.114E-1,-4.4308867E-2,4.8047E2,8.4E-2,9.634781E-2,-4.0224887E-2,6.333718E-2,-5.3777974E-2,8.181E-1,2.1435E2,-9.969E-1,-1.092E-1,4.3352E2,-5.1248033E-2,2.0721E1,1.14333E-1,1.3925786E-1,1.6238235E-2,-3.8023204E-2,9.554457E-2,4.2917427E-2,-3.3907402E-2,9.054277E-2,1.1577937E-2,-3.503718E-2,3.2343693E-2,-3.15586E-2,5.514961E-2],"split_indices":[15,0,6,1,6,2,0,1,1,2,0,2,2,0,0,0,0,0,1,0,2,0,0,0,6,1,0,6,2,0,0,0,0,1,6,1,1,6,0,0,0,0,0,0,0,0,0,0,0,0,0,0,0],"split_type":[0,0,0,0,0,0,0,0,0,0,0,0,0,0,0,0,0,0,0,0,0,0,0,0,0,0,0,0,0,0,0,0,0,0,0,0,0,0,0,0,0,0,0,0,0,0,0,0,0,0,0,0,0],"sum_hessian":[1.2205823E2,5.9165394E1,6.289283E1,1.213753E1,4.7027863E1,4.1286E1,2.1606833E1,4.8312097E0,7.3063207E0,4.070707E1,6.320794E0,1.7872734E1,2.3413265E1,1.4071724E1,7.535108E0,2.0092294E0,2.8219805E0,3.9130416E0,3.393279E0,2.8910639E1,1.1796429E1,1.1867003E0,5.1340938E0,1.9986631E0,1.5874071E1,2.0480354E1,2.9329114E0,9.538728E0,4.5329957E0,1.2816693E0,2.1116097E0,1.1083505E0,1.0688079E1,1.1613916E1,4.2601542E0,6.576043E0,1.390431E1,3.188555E0,6.3501735E0,2.3467329E0,2.1862628E0,1.0578738E1,1.0351784E0,1.7014377E0,2.5587168E0,1.5040083E0,5.072035E0,8.563398E0,5.340913E0,1.3971092E0,1.7914457E0,1.1093433E0,1.2373896E0],"tree_param":{"num_deleted":"0","num_feature":"17","num_nodes":"53","size_leaf_vector":"1"}},{"base_weights":[-3.5943738E-3,5.4609233E-1,-6.892848E-2,3.847139E-1,9.857782E-2,5.2993375E-1,1.5814552E-1,4.2237943E-1,8.2459813E-1,8.569339E-2,3.525917E-2,4.6914148E-1,-4.7176637E-2,9.314611E-2,3.620782E-1,-5.51148E-1,2.8882813E-1,5.3046316E-2,-2.9469091E-2,-1.0293469E-2,6.7705706E-2,-6.314548E-2,-1.4372337E-2,6.9102995E-2,-2.4520538E-3],"categories":[],"categories_nodes":[],"categories_segments":[],"categories_sizes":[],"default_left":[0,0,0,0,0,0,0,0,0,0,0,0,0,0,0,0,0,0,0,0,0,0,0,0,0],"id":15,"left_children":[1,3,-1,5,-1,7,9,11,13,-1,15,17,-1,-1,19,21,23,-1,-1,-1,-1,-1,-1,-1,-1],"loss_changes":[7.4934364E1,7.450882E0,0E0,2.6261501E0,0E0,1.2289553E0,2.8547761E0,1.83149E0,2.685957E-1,0E0,4.5627685E0,1.8939323E0,0E0,0E0,6.46266E-1,2.1300459E-1,2.7052808E0,0E0,0E0,0E0,0E0,0E0,0E0,0E0,0E0],"parents":[2147483647,0,0,1,1,3,3,5,5,6,6,7,7,8,8,10,10,11,11,14,14,15,15,16,16],"right_children":[2,4,-1,6,-1,8,10,12,14,-1,16,18,-1,-1,20,22,24,-1,-1,-1,-1,-1,-1,-1,-1],"split_conditions":[1E0,2.06602E1,-6.892848E-2,2.9383E2,9.857782E-2,1.22165E1,-9.998E-1,1.18144E1,1.69086E1,8.569339E-2,-2.53E-2,1E0,-4.7176637E-2,9.314611E-2,1.76008E1,1.51278E1,8.2808E0,5.3046316E-2,-2.9469091E-2,-1.0293469E-2,6.7705706E-2,-6.314548E-2,-1.4372337E-2,6.9102995E-2,-2.4520538E-3],"split_indices":[15,0,0,6,0,0,1,0,0,0,1,1,0,0,0,0,0,0,0,0,0,0,0,0,0],"split_type":[0,0,0,0,0,0,0,0,0,0,0,0,0,0,0,0,0,0,0,0,0,0,0,0,0],"sum_hessian":[1.9681108E2,1.0935209E2,8.745899E1,8.136395E1,2.7988136E1,4.8767372E1,3.2596584E1,3.7509575E1,1.1257798E1,3.981658E0,2.8614925E1,3.6097088E1,1.4124868E0,8.321317E0,2.9364815E0,8.2839E0,2.0331026E1,3.3697334E1,2.3997526E0,1.457674E0,1.4788074E0,6.460594E0,1.8233063E0,8.375397E0,1.1955628E1],"tree_param":{"num_deleted":"0","num_feature":"17","num_nodes":"25","size_leaf_vector":"1"}},{"base_weights":[-1.5524321E-4,4.0712157E-1,-5.4305315E-2,6.2406766E-1,-5.018949E-2,-1.7576256E-1,8.94952E-1,9.404126E-2,-4.0964893E-1,-3.0636657E-2,9.4524705E-1,-4.887338E-2,-8.686241E-2,1.0708451E0,4.0738603E-1,-3.1067846E-2,1.984076E-2,1.9032949E-3,1.1460564E-1,1.1088555E-1,-1.0215509E-2],"categories":[],"categories_nodes":[],"categories_segments":[],"categories_sizes":[],"default_left":[0,0,0,0,0,0,0,0,0,0,0,0,0,0,0,0,0,0,0,0,0],"id":16,"left_children":[1,3,-1,5,-1,7,9,-1,11,-1,13,-1,15,17,19,-1,-1,-1,-1,-1,-1],"loss_changes":[2.048937E1,1.0754667E1,0E0,9.515062E0,0E0,3.4560232E0,2.2488956E0,0E0,2.2358513E-1,0E0,1.6829014E0,0E0,2.702341E-1,1.9414177E0,2.8127615E0,0E0,0E0,0E0,0E0,0E0,0E0],"parents":[2147483647,0,0,1,1,3,3,5,5,6,6,8,8,10,10,12,12,13,13,14,14],"right_children":[2,4,-1,6,-1,8,10,-1,12,-1,14,-1,16,18,20,-1,-1,-1,-1,-1,-1],"split_conditions":[1E0,2.06602E1,-5.4305315E-2,6.0339E0,-5.018949E-2,2.624E1,4.375E1,9.404126E-2,5.1203E0,-3.0636657E-2,1.47818E1,-4.887338E-2,5E-4,-9.999E-1,-4.986E-1,-3.1067846E-2,1.984076E-2,1.9032949E-3,1.1460564E-1,1.1088555E-1,-1.0215509E-2],"split_indices":[15,0,0,0,0,6,6,0,0,0,0,0,2,2,1,0,0,0,0,0,0],"split_type":[0,0,0,0,0,0,0,0,0,0,0,0,0,0,0,0,0,0,0,0,0],"sum_hessian":[9.066616E1,5.1946495E1,3.8719666E1,4.2190716E1,9.755779E0,1.07628355E1,3.142788E1,1.3412383E0,9.4215975E0,1.0583106E0,3.036957E1,7.154571E0,2.2670264E0,2.3817028E1,6.5525413E0,1.2204344E0,1.0465919E0,1.6730391E0,2.214399E1,2.2621396E0,4.2904015E0],"tree_param":{"num_deleted":"0","num_feature":"17","num_nodes":"21","size_leaf_vector":"1"}},{"base_weights":[7.084156E-3,-5.5982392E-2,4.736883E-1,1.6439857E-1,8.7799966E-1,9.433888E-1,-3.0233192E-1,4.1489524E-1,1.8371494E-1,-3.0874008E-1,1.6133242E0,1.6950081E-1,-5.124199E-1,1.4690942E-1,8.120844E-2,1.4438602E-2,-4.5449246E-2,7.332532E-1,1.8069685E-1,9.558857E-3,-5.5429775E-2,-3.5473394E-1,9.082033E-1,1.0143236E-1,1.0692084E-2,6.2347423E-2,-5.261885E-2,1.5396746E-1,1.17657315E-2],"categories":[],"categories_nodes":[],"categories_segments":[],"categories_sizes":[],"default_left":[0,0,0,0,0,0,0,0,0,0,0,0,0,0,0,0,0,0,0,0,0,0,0,0,0,0,0,0,0],"id":17,"left_children":[1,-1,3,5,7,9,11,13,-1,15,17,-1,19,-1,21,-1,-1,23,-1,-1,-1,25,27,-1,-1,-1,-1,-1,-1],"loss_changes":[2.9425907E1,0E0,7.4850254E0,1.3300544E1,1.0881243E1,1.1952503E1,1.0579701E1,6.5536165E0,0E0,4.353913E-1,2.1839142E-1,0E0,6.05721E-1,0E0,5.8984227E0,0E0,0E0,4.7534108E-1,0E0,0E0,0E0,2.1473553E0,2.6243167E0,0E0,0E0,0E0,0E0,0E0,0E0],"parents":[2147483647,0,0,2,2,3,3,4,4,5,5,6,6,7,7,9,9,10,10,12,12,14,14,17,17,21,21,22,22],"right_children":[2,-1,4,6,8,10,12,14,-1,16,18,-1,20,-1,22,-1,-1,24,-1,-1,-1,26,28,-1,-1,-1,-1,-1,-1],"split_conditions":[1E0,-5.5982392E-2,-9.84E-2,-7.727E-1,7.733E-1,-6.96E-2,-8.068E-1,2.35E-2,1.8371494E-1,8.9752E0,4.5307E0,1.6950081E-1,5.7227E0,1.4690942E-1,8.235E-1,1.4438602E-2,-4.5449246E-2,4.0245E2,1.8069685E-1,9.558857E-3,-5.5429775E-2,7.3871E0,1.16E-2,1.0143236E-1,1.0692084E-2,6.2347423E-2,-5.261885E-2,1.5396746E-1,1.17657315E-2],"split_indices":[15,0,1,1,2,2,2,1,0,0,0,0,0,0,1,0,0,6,0,0,0,0,2,0,0,0,0,0,0],"split_type":[0,0,0,0,0,0,0,0,0,0,0,0,0,0,0,0,0,0,0,0,0,0,0,0,0,0,0,0,0],"sum_hessian":[1.09239456E2,4.9228603E1,6.0010853E1,3.4797844E1,2.521301E1,1.2654967E1,2.2142876E1,1.796943E1,7.24358E0,4.598809E0,8.056159E0,1.4347155E0,2.070816E1,3.5022728E0,1.4467157E1,1.1215192E0,3.4772894E0,2.3161883E0,5.7399707E0,1.2517629E0,1.9456396E1,9.847303E0,4.6198545E0,1.1711584E0,1.1450299E0,1.0753978E0,8.771905E0,2.0415218E0,2.578333E0],"tree_param":{"num_deleted":"0","num_feature":"17","num_nodes":"29","size_leaf_vector":"1"}},{"base_weights":[-2.7225749E-3,-5.569645E-1,4.5200092E-1,-5.2326615E-3,-5.7144713E-2,8.863743E-2,6.839803E-1,4.6791923E-1,-2.4169375E-1,-3.9165013E-2,7.354965E-1,-2.1758862E-1,6.650648E-1,-5.3165354E-2,7.524985E-3,9.688767E-1,4.512993E-1,1.026371E-2,-3.9560463E-2,1.3064415E-2,8.9093065E-1,2.1652061E-1,-4.3821644E-2,1.581061E-2,9.992838E-1,-1.3387321E-1,6.0316336E-1,-4.1214332E-2,5.933199E-2,1.253589E-1,5.497947E-2,-3.8660474E-2,4.6051037E-2,5.7554167E-2,1.0891744E-1,-3.981237E-2,1.1488777E-2,-3.629433E-2,7.130318E-2],"categories":[],"categories_nodes":[],"categories_segments":[],"categories_sizes":[],"default_left":[0,0,0,0,0,0,0,0,0,0,0,0,0,0,0,0,0,0,0,0,0,0,0,0,0,0,0,0,0,0,0,0,0,0,0,0,0,0,0],"id":18,"left_children":[1,3,5,-1,-1,7,9,11,13,-1,15,17,19,-1,21,23,25,-1,-1,27,29,31,-1,-1,33,35,37,-1,-1,-1,-1,-1,-1,-1,-1,-1,-1,-1,-1],"loss_changes":[3.517029E1,4.2973328E-1,6.4012966E0,0E0,0E0,3.9995613E0,2.872507E0,2.1422524E0,1.2497772E0,0E0,2.5378685E0,2.717514E-1,1.7151699E0,0E0,1.0504092E0,4.2771912E-1,2.044517E0,0E0,0E0,1.2393035E0,3.8637686E-1,1.3041122E0,0E0,0E0,2.3822021E-1,3.988409E-1,2.140348E0,0E0,0E0,0E0,0E0,0E0,0E0,0E0,0E0,0E0,0E0,0E0,0E0],"parents":[2147483647,0,0,1,1,2,2,5,5,6,6,7,7,8,8,10,10,11,11,12,12,14,14,15,15,16,16,19,19,20,20,21,21,24,24,25,25,26,26],"right_children":[2,4,6,-1,-1,8,10,12,14,-1,16,18,20,-1,22,24,26,-1,-1,28,30,32,-1,-1,34,36,38,-1,-1,-1,-1,-1,-1,-1,-1,-1,-1,-1,-1],"split_conditions":[1E0,1.6468E0,1.30757E1,-5.2326615E-3,-5.7144713E-2,-6.92E-1,-9.969E-1,-9.969E-1,4.061E-1,-3.9165013E-2,-3.909E-1,5.4279E0,6.0576E0,-5.3165354E-2,9.928E-1,-7.312E-1,1.5486E2,1.026371E-2,-3.9560463E-2,4.0245E2,4.375E1,7.86E0,-4.3821644E-2,1.581061E-2,-7.727E-1,4.042E-1,-9.988E-1,-4.1214332E-2,5.933199E-2,1.253589E-1,5.497947E-2,-3.8660474E-2,4.6051037E-2,5.7554167E-2,1.0891744E-1,-3.981237E-2,1.1488777E-2,-3.629433E-2,7.130318E-2],"split_indices":[15,0,0,0,0,1,1,1,2,0,1,0,0,0,2,2,6,0,0,6,6,0,0,0,1,1,2,0,0,0,0,0,0,0,0,0,0,0,0],"split_type":[0,0,0,0,0,0,0,0,0,0,0,0,0,0,0,0,0,0,0,0,0,0,0,0,0,0,0,0,0,0,0,0,0,0,0,0,0,0,0],"sum_hessian":[1.375509E2,6.189051E1,7.566039E1,1.8553421E0,6.0035168E1,3.0020124E1,4.5640266E1,1.3780745E1,1.623938E1,1.7842225E0,4.3856045E1,3.0548453E0,1.0725899E1,6.9823313E0,9.25705E0,2.2758112E1,2.1097933E1,1.2427506E0,1.8120947E0,3.0318334E0,7.6940656E0,6.652245E0,2.6048043E0,1.0467714E0,2.1711342E1,4.3715715E0,1.672636E1,1.9168779E0,1.1149557E0,2.432912E0,5.261153E0,1.7476546E0,4.9045906E0,5.0952306E0,1.661611E1,1.8286408E0,2.5429308E0,1.4727335E0,1.5253628E1],"tree_param":{"num_deleted":"0","num_feature":"17","num_nodes":"39","size_leaf_vector":"1"}},{"base_weights":[2.632139E-3,-3.220149E-1,2.9146892E-1,2.5894338E-1,-4.829881E-1,5.199089E-1,-1.7025484E-1,-3.204935E-1,6.2561095E-1,-5.1687306E-1,-2.264717E-1,5.965317E-1,-4.356901E-2,3.3852123E-2,-5.1981416E-2,6.0380367E-3,-4.5641426E-2,8.925566E-1,-3.5488185E-2,-5.609384E-2,-3.7216026E-1,5.645013E-2,-4.848845E-2,-3.9725825E-2,6.563233E-1,-3.4456393E-1,7.1405256E-1,1.1275078E-2,1.0386907E0,6.115004E-2,-5.2872088E-2,9.8562026E-1,3.580581E-1,8.6800745E-3,-5.05641E-2,2.5357238E-3,9.5817494E-1,1.22066535E-1,1.5277468E-2,1.1404782E-1,4.1447636E-2,-1.2771733E-2,5.7086505E-2,-3.4618553E-2,3.0124465E-2,1.1720794E-1,3.7910443E-2],"categories":[],"categories_nodes":[],"categories_segments":[],"categories_sizes":[],"default_left":[0,0,0,0,0,0,0,0,0,0,0,0,0,0,0,0,0,0,0,0,0,0,0,0,0,0,0,0,0,0,0,0,0,0,0,0,0,0,0,0,0,0,0,0,0,0,0],"id":19,"left_children":[1,3,5,7,9,11,13,15,17,19,21,23,-1,25,-1,-1,-1,27,-1,-1,29,-1,-1,-1,31,33,35,-1,37,-1,-1,39,41,43,-1,-1,45,-1,-1,-1,-1,-1,-1,-1,-1,-1,-1],"loss_changes":[1.1547299E1,5.5474863E0,6.961532E0,3.0115924E0,2.8061485E-1,3.4699202E0,1.6101774E0,3.272488E-1,2.526365E0,4.3973923E-2,1.72867E0,2.697444E0,0E0,4.115152E0,0E0,0E0,0E0,6.7146397E-1,0E0,0E0,2.205635E0,0E0,0E0,0E0,3.4832726E0,5.9232473E-1,9.338064E-1,0E0,7.334175E-1,0E0,0E0,1.1186867E0,2.3539276E0,5.4233E-1,0E0,0E0,7.343817E-2,0E0,0E0,0E0,0E0,0E0,0E0,0E0,0E0,0E0,0E0],"parents":[2147483647,0,0,1,1,2,2,3,3,4,4,5,5,6,6,7,7,8,8,9,9,10,10,11,11,13,13,17,17,20,20,24,24,25,25,26,26,28,28,31,31,32,32,33,33,36,36],"right_children":[2,4,6,8,10,12,14,16,18,20,22,24,-1,26,-1,-1,-1,28,-1,-1,30,-1,-1,-1,32,34,36,-1,38,-1,-1,40,42,44,-1,-1,46,-1,-1,-1,-1,-1,-1,-1,-1,-1,-1],"split_conditions":[1E0,5.0755E0,3.8474E2,1.524E2,7.0683E2,9.94E-1,2.42519E1,-9.147E-1,9.94E-1,6.364E-1,7.0805E2,-9.854E-1,-4.356901E-2,1.60974E1,-5.1981416E-2,6.0380367E-3,-4.5641426E-2,2.3248E0,-3.5488185E-2,-5.609384E-2,7.733E-1,5.645013E-2,-4.848845E-2,-3.9725825E-2,-3.99E-1,4.8047E2,-1.992E-1,1.1275078E-2,1.701E-1,6.115004E-2,-5.2872088E-2,1.5486E2,-7.114E-1,4.3352E2,-5.05641E-2,2.5357238E-3,-7.001E-1,1.22066535E-1,1.5277468E-2,1.1404782E-1,4.1447636E-2,-1.2771733E-2,5.7086505E-2,-3.4618553E-2,3.0124465E-2,1.1720794E-1,3.7910443E-2],"split_indices":[15,0,6,6,6,2,0,2,2,2,6,2,0,0,0,0,0,0,0,0,2,0,0,0,2,6,2,0,1,0,0,6,1,6,0,0,1,0,0,0,0,0,0,0,0,0,0],"split_type":[0,0,0,0,0,0,0,0,0,0,0,0,0,0,0,0,0,0,0,0,0,0,0,0,0,0,0,0,0,0,0,0,0,0,0,0,0,0,0,0,0,0,0,0,0,0,0],"sum_hessian":[1.2114399E2,5.6982204E1,6.416178E1,1.2231098E1,4.4751106E1,4.2840317E1,2.1321466E1,4.7890286E0,7.44207E0,3.863286E1,6.118248E0,4.00081E1,2.8322177E0,1.40316E1,7.2898664E0,1.4057207E0,3.383308E0,5.919997E0,1.5220726E0,2.7410189E1,1.1222668E1,1.2149439E0,4.903304E0,1.9501886E0,3.805791E1,9.332876E0,4.698724E0,1.2138996E0,4.7060976E0,1.1419611E0,1.0080707E1,1.6992733E1,2.1065178E1,3.219214E0,6.1136627E0,1.518564E0,3.1801596E0,3.590684E0,1.1154137E0,1.2583938E1,4.4087954E0,6.538822E0,1.4526356E1,1.371896E0,1.8473178E0,1.574486E0,1.6056736E0],"tree_param":{"num_deleted":"0","num_feature":"17","num_nodes":"47","size_leaf_vector":"1"}},{"base_weights":[-4.970145E-3,5.052376E-1,-6.697752E-2,3.5608953E-1,9.142158E-2,4.8886332E-1,1.4670217E-1,3.8609776E-1,7.714607E-1,8.114881E-2,2.9124845E-2,4.8661193E-1,-4.218463E-2,8.7190144E-2,3.3701E-1,-5.3670764E-1,2.6842585E-1,5.672204E-2,-6.8947966E-3,3.0046055E-2,-4.204379E-2,-1.06360605E-2,6.3912004E-2,-6.1567754E-2,-1.4250598E-2,6.445168E-2,-2.6163314E-3],"categories":[],"categories_nodes":[],"categories_segments":[],"categories_sizes":[],"default_left":[0,0,0,0,0,0,0,0,0,0,0,0,0,0,0,0,0,0,0,0,0,0,0,0,0,0,0],"id":20,"left_children":[1,3,-1,5,-1,7,9,11,13,-1,15,17,19,-1,21,23,25,-1,-1,-1,-1,-1,-1,-1,-1,-1,-1],"loss_changes":[6.628915E1,6.4196186E0,0E0,2.226531E0,0E0,1.1588507E0,2.595427E0,1.6901884E0,2.4613428E-1,0E0,4.139704E0,1.4494534E0,1.2011056E0,0E0,5.9756E-1,1.9567084E-1,2.3883648E0,0E0,0E0,0E0,0E0,0E0,0E0,0E0,0E0,0E0,0E0],"parents":[2147483647,0,0,1,1,3,3,5,5,6,6,7,7,8,8,10,10,11,11,12,12,14,14,15,15,16,16],"right_children":[2,4,-1,6,-1,8,10,12,14,-1,16,18,20,-1,22,24,26,-1,-1,-1,-1,-1,-1,-1,-1,-1,-1],"split_conditions":[1E0,2.06602E1,-6.697752E-2,2.9383E2,9.142158E-2,1.22165E1,-9.998E-1,1.524E2,1.69086E1,8.114881E-2,-2.53E-2,9.996E-1,7.86E0,8.7190144E-2,1.76008E1,1.51278E1,8.2808E0,5.672204E-2,-6.8947966E-3,3.0046055E-2,-4.204379E-2,-1.06360605E-2,6.3912004E-2,-6.1567754E-2,-1.4250598E-2,6.445168E-2,-2.6163314E-3],"split_indices":[15,0,0,6,0,0,1,6,0,0,1,1,0,0,0,0,0,0,0,0,0,0,0,0,0,0,0],"split_type":[0,0,0,0,0,0,0,0,0,0,0,0,0,0,0,0,0,0,0,0,0,0,0,0,0,0,0],"sum_hessian":[1.9343675E2,1.0957949E2,8.385726E1,8.166735E1,2.7912142E1,4.9159977E1,3.250737E1,3.7785618E1,1.1374362E1,3.9984224E0,2.8508947E1,3.0492983E1,7.2926345E0,8.42068E0,2.9536822E0,8.104014E0,2.0404934E1,2.661091E1,3.8820722E0,3.9343343E0,3.3583002E0,1.4595771E0,1.4941051E0,6.2834296E0,1.8205847E0,8.440902E0,1.1964031E1],"tree_param":{"num_deleted":"0","num_feature":"17","num_nodes":"27","size_leaf_vector":"1"}},{"base_weights":[3.5513547E-4,3.7846363E-1,-5.3917505E-2,5.6705666E-1,-4.949912E-2,-1.6682413E-1,7.9598725E-1,8.8080324E-2,-4.0246212E-1,-3.0171892E-2,8.3909607E-1,-4.8426133E-2,-8.6572684E-2,-2.0419117E-3,8.896896E-1,-3.0596782E-2,1.9351792E-2,6.1517667E-2,1.1906264E-1],"categories":[],"categories_nodes":[],"categories_segments":[],"categories_sizes":[],"default_left":[0,0,0,0,0,0,0,0,0,0,0,0,0,0,0,0,0,0,0],"id":21,"left_children":[1,3,-1,5,-1,7,9,-1,11,-1,13,-1,15,-1,17,-1,-1,-1,-1],"loss_changes":[1.8756016E1,9.185282E0,0E0,7.6802874E0,0E0,3.1954463E0,1.8817253E0,0E0,2.1857738E-1,0E0,1.4696903E0,0E0,2.6146352E-1,0E0,1.8736057E0,0E0,0E0,0E0,0E0],"parents":[2147483647,0,0,1,1,3,3,5,5,6,6,8,8,10,10,12,12,14,14],"right_children":[2,4,-1,6,-1,8,10,-1,12,-1,14,-1,16,-1,18,-1,-1,-1,-1],"split_conditions":[1E0,2.06602E1,-5.3917505E-2,6.0339E0,-4.949912E-2,2.624E1,4.375E1,8.8080324E-2,5.68E-1,-3.0171892E-2,-9.998E-1,-4.8426133E-2,5.0755E0,-2.0419117E-3,3.7609E2,-3.0596782E-2,1.9351792E-2,6.1517667E-2,1.1906264E-1],"split_indices":[15,0,0,0,0,6,6,0,1,0,1,0,0,0,6,0,0,0,0],"split_type":[0,0,0,0,0,0,0,0,0,0,0,0,0,0,0,0,0,0,0],"sum_hessian":[8.994056E1,5.3056515E1,3.688404E1,4.3923508E1,9.133006E0,1.0508332E1,3.3415176E1,1.4268266E0,9.081506E0,1.0359952E0,3.237918E1,6.7901864E0,2.2913198E0,1.8331361E0,3.0546045E1,1.2330681E0,1.0582516E0,1.7566336E1,1.2979711E1],"tree_param":{"num_deleted":"0","num_feature":"17","num_nodes":"19","size_leaf_vector":"1"}},{"base_weights":[9.16641E-3,-5.5420574E-2,4.4018668E-1,1.5569727E-1,7.973478E-1,8.4885544E-1,-2.922389E-1,3.8692772E-1,1.5863034E-1,-3.042619E-1,1.4132214E0,1.5059498E-1,-5.053165E-1,1.2956046E-1,7.824071E-2,1.366319E-2,-4.495385E-2,6.797473E-1,1.5614168E-1,8.844057E-3,-5.4830845E-2,-3.480543E-1,8.386616E-1,9.5092796E-2,8.902762E-3,5.874495E-2,-5.207782E-2,1.3954452E-1,1.0887786E-2],"categories":[],"categories_nodes":[],"categories_segments":[],"categories_sizes":[],"default_left":[0,0,0,0,0,0,0,0,0,0,0,0,0,0,0,0,0,0,0,0,0,0,0,0,0,0,0,0,0],"id":22,"left_children":[1,-1,3,5,7,9,11,13,-1,15,17,-1,19,-1,21,-1,-1,23,-1,-1,-1,25,27,-1,-1,-1,-1,-1,-1],"loss_changes":[2.6597666E1,0E0,6.180134E0,1.1356972E1,8.215101E0,9.736771E0,9.373354E0,5.300569E0,0E0,4.151234E-1,1.5621185E-3,0E0,5.805979E-1,0E0,5.296781E0,0E0,0E0,4.6233976E-1,0E0,0E0,0E0,2.0187044E0,2.2208233E0,0E0,0E0,0E0,0E0,0E0,0E0],"parents":[2147483647,0,0,2,2,3,3,4,4,5,5,6,6,7,7,9,9,10,10,12,12,14,14,17,17,21,21,22,22],"right_children":[2,-1,4,6,8,10,12,14,-1,16,18,-1,20,-1,22,-1,-1,24,-1,-1,-1,26,28,-1,-1,-1,-1,-1,-1],"split_conditions":[1E0,-5.5420574E-2,-9.84E-2,-7.727E-1,7.733E-1,-6.96E-2,-8.068E-1,2.35E-2,1.5863034E-1,8.9752E0,4.5307E0,1.5059498E-1,5.7227E0,1.2956046E-1,8.235E-1,1.366319E-2,-4.495385E-2,2.1197E0,1.5614168E-1,8.844057E-3,-5.4830845E-2,7.3871E0,1.16E-2,9.5092796E-2,8.902762E-3,5.874495E-2,-5.207782E-2,1.3954452E-1,1.0887786E-2],"split_indices":[15,0,1,1,2,2,2,1,0,0,0,0,0,0,1,0,0,0,0,0,0,0,2,0,0,0,0,0,0],"split_type":[0,0,0,0,0,0,0,0,0,0,0,0,0,0,0,0,0,0,0,0,0,0,0,0,0,0,0,0,0],"sum_hessian":[1.0752975E2,4.6484985E1,6.104476E1,3.4778545E1,2.6266212E1,1.330096E1,2.1477587E1,1.8258467E1,8.007748E0,4.522147E0,8.778812E0,1.6325641E0,1.9845022E1,3.8191001E0,1.4439365E1,1.1355176E0,3.3866296E0,2.41465E0,6.3641624E0,1.2685165E0,1.8576506E1,9.599907E0,4.839459E0,1.2370027E0,1.1776471E0,1.1219783E0,8.477928E0,2.2277088E0,2.6117501E0],"tree_param":{"num_deleted":"0","num_feature":"17","num_nodes":"29","size_leaf_vector":"1"}},{"base_weights":[-3.4238768E-3,-5.476884E-1,4.106493E-1,-4.9246526E-3,-5.6271434E-2,8.056148E-2,6.142134E-1,4.3123317E-1,-2.3629169E-1,-3.8286787E-2,6.592102E-1,-2.1102938E-1,6.0835016E-1,-5.2357316E-2,2.811035E-3,-3.550876E-2,6.990597E-1,-3.8876258E-2,1.0184971E-2,1.0234951E-2,8.073601E-1,1.9499415E-1,-4.269307E-2,7.495382E-1,-1.6983365E-1,-4.0469833E-2,5.5451643E-2,1.14160456E-1,4.9683712E-2,-3.7845504E-2,4.1640803E-2,-3.3650827E-2,7.84229E-2,-3.4625944E-2,7.459306E-3],"categories":[],"categories_nodes":[],"categories_segments":[],"categories_sizes":[],"default_left":[0,0,0,0,0,0,0,0,0,0,0,0,0,0,0,0,0,0,0,0,0,0,0,0,0,0,0,0,0,0,0,0,0,0,0],"id":23,"left_children":[1,3,5,-1,-1,7,9,11,13,-1,15,17,19,-1,21,-1,23,-1,-1,25,27,29,-1,31,33,-1,-1,-1,-1,-1,-1,-1,-1,-1,-1],"loss_changes":[3.1116934E1,4.1907883E-1,5.219879E0,0E0,0E0,3.5535383E0,2.4218788E0,1.8460231E0,1.1668122E0,0E0,2.133171E0,2.62384E-1,1.4311862E0,0E0,9.300921E-1,0E0,2.1101685E0,0E0,0E0,1.134999E0,3.7326384E-1,1.1443524E0,0E0,1.880619E0,1.6802612E-1,0E0,0E0,0E0,0E0,0E0,0E0,0E0,0E0,0E0,0E0],"parents":[2147483647,0,0,1,1,2,2,5,5,6,6,7,7,8,8,10,10,11,11,12,12,14,14,16,16,19,19,20,20,21,21,23,23,24,24],"right_children":[2,4,6,-1,-1,8,10,12,14,-1,16,18,20,-1,22,-1,24,-1,-1,26,28,30,-1,32,34,-1,-1,-1,-1,-1,-1,-1,-1,-1,-1],"split_conditions":[1E0,1.6468E0,1.30757E1,-4.9246526E-3,-5.6271434E-2,-6.92E-1,-9.969E-1,-9.969E-1,4.061E-1,-3.8286787E-2,-9.988E-1,5E-4,6.0576E0,-5.2357316E-2,9.928E-1,-3.550876E-2,9.941E-1,-3.8876258E-2,1.0184971E-2,4.0245E2,4.375E1,7.86E0,-4.269307E-2,5.718E1,2.4489E2,-4.0469833E-2,5.5451643E-2,1.14160456E-1,4.9683712E-2,-3.7845504E-2,4.1640803E-2,-3.3650827E-2,7.84229E-2,-3.4625944E-2,7.459306E-3],"split_indices":[15,0,0,0,0,1,1,1,2,0,2,2,0,0,2,0,1,0,0,6,6,0,0,6,6,0,0,0,0,0,0,0,0,0,0],"split_type":[0,0,0,0,0,0,0,0,0,0,0,0,0,0,0,0,0,0,0,0,0,0,0,0,0,0,0,0,0,0,0,0,0,0,0],"sum_hessian":[1.3607532E2,5.865523E1,7.742008E1,1.841634E0,5.6813595E1,3.0064686E1,4.7355396E1,1.4099417E1,1.5965269E1,1.7205727E0,4.5634823E1,3.0063405E0,1.1093076E1,6.711579E0,9.25369E0,1.4260693E0,4.4208755E1,1.7625681E0,1.2437723E0,3.0319924E0,8.061084E0,6.771629E0,2.4820611E0,4.191128E1,2.2974746E0,1.8659436E0,1.1660489E0,2.5932918E0,5.4677916E0,1.6887078E0,5.082921E0,1.0279999E0,4.088328E1,1.0923812E0,1.2050933E0],"tree_param":{"num_deleted":"0","num_feature":"17","num_nodes":"35","size_leaf_vector":"1"}},{"base_weights":[3.3746327E-3,-3.1036776E-1,2.680394E-1,2.4395323E-1,-4.7293624E-1,4.7239727E-1,-1.6384831E-1,-3.1146166E-1,5.783438E-1,-5.080168E-1,-2.1381673E-1,5.395363E-1,-4.2606484E-2,3.3737045E-2,-5.1311553E-2,6.4640255E-3,-4.5002434E-2,8.1763524E-1,-3.4896653E-2,-5.5423714E-2,-3.5787868E-1,5.518387E-2,-4.771096E-2,-3.9073136E-2,5.925915E-1,-3.3834454E-1,6.7308325E-1,1.1414385E-2,9.409754E-1,5.9196245E-2,-5.202357E-2,8.7713283E-1,3.275049E-1,3.2082074E-3,-4.993977E-2,1.4490113E-1,1.006226E0,1.09251276E-1,1.5019821E-2,1.0075859E-1,3.8049344E-2,-1.2513267E-2,5.1789265E-2,-3.4135893E-2,2.8032815E-2,-3.173297E-2,5.0547637E-2,1.2768053E-1,1.7882384E-2],"categories":[],"categories_nodes":[],"categories_segments":[],"categories_sizes":[],"default_left":[0,0,0,0,0,0,0,0,0,0,0,0,0,0,0,0,0,0,0,0,0,0,0,0,0,0,0,0,0,0,0,0,0,0,0,0,0,0,0,0,0,0,0,0,0,0,0,0,0],"id":24,"left_children":[1,3,5,7,9,11,13,15,17,19,21,23,-1,25,-1,-1,-1,27,-1,-1,29,-1,-1,-1,31,33,35,-1,37,-1,-1,39,41,43,-1,45,47,-1,-1,-1,-1,-1,-1,-1,-1,-1,-1,-1,-1],"loss_changes":[1.01368E1,5.1495743E0,5.9211073E0,2.6554751E0,2.8712463E-1,2.956522E0,1.5361413E0,3.2398242E-1,2.2090273E0,6.269741E-2,1.6579078E0,2.3291502E0,0E0,3.7948873E0,0E0,0E0,0E0,5.1647997E-1,0E0,0E0,2.1087697E0,0E0,0E0,0E0,2.7754326E0,5.596144E-1,8.8371396E-1,0E0,5.52454E-1,0E0,0E0,8.4679127E-1,2.0138261E0,5.009539E-1,0E0,7.322808E-1,5.3725743E-1,0E0,0E0,0E0,0E0,0E0,0E0,0E0,0E0,0E0,0E0,0E0,0E0],"parents":[2147483647,0,0,1,1,2,2,3,3,4,4,5,5,6,6,7,7,8,8,9,9,10,10,11,11,13,13,17,17,20,20,24,24,25,25,26,26,28,28,31,31,32,32,33,33,35,35,36,36],"right_children":[2,4,6,8,10,12,14,16,18,20,22,24,-1,26,-1,-1,-1,28,-1,-1,30,-1,-1,-1,32,34,36,-1,38,-1,-1,40,42,44,-1,46,48,-1,-1,-1,-1,-1,-1,-1,-1,-1,-1,-1,-1],"split_conditions":[1E0,5.0755E0,3.8474E2,1.524E2,7.0683E2,9.94E-1,2.42519E1,-3.533E-1,9.94E-1,6.364E-1,9.8723E0,-9.854E-1,-4.2606484E-2,1.60974E1,-5.1311553E-2,6.4640255E-3,-4.5002434E-2,2.3248E0,-3.4896653E-2,-5.5423714E-2,7.733E-1,5.518387E-2,-4.771096E-2,-3.9073136E-2,-3.99E-1,4.8047E2,8.4E-2,1.1414385E-2,1.701E-1,5.9196245E-2,-5.202357E-2,1.5486E2,-7.114E-1,4.3352E2,-4.993977E-2,2.0721E1,7.138E-1,1.09251276E-1,1.5019821E-2,1.0075859E-1,3.8049344E-2,-1.2513267E-2,5.1789265E-2,-3.4135893E-2,2.8032815E-2,-3.173297E-2,5.0547637E-2,1.2768053E-1,1.7882384E-2],"split_indices":[15,0,6,6,6,2,0,1,2,2,0,2,0,0,0,0,0,0,0,0,2,0,0,0,2,6,2,0,1,0,0,6,1,6,0,0,2,0,0,0,0,0,0,0,0,0,0,0,0],"split_type":[0,0,0,0,0,0,0,0,0,0,0,0,0,0,0,0,0,0,0,0,0,0,0,0,0,0,0,0,0,0,0,0,0,0,0,0,0,0,0,0,0,0,0,0,0,0,0,0,0],"sum_hessian":[1.20074486E2,5.486409E1,6.5210396E1,1.2327965E1,4.253613E1,4.420158E1,2.1008816E1,4.658641E0,7.6693234E0,3.661808E1,5.918047E0,4.149992E1,2.7016606E0,1.3995035E1,7.01378E0,1.397874E0,3.260767E0,6.190217E0,1.4791062E0,2.594069E1,1.0677392E1,1.2339139E0,4.684133E0,1.8957248E0,3.9604195E1,9.1441765E0,4.8508587E0,1.2106296E0,4.9795876E0,1.1724025E0,9.50499E0,1.7987612E1,2.1616581E1,3.2441783E0,5.899998E0,2.4312222E0,2.4196365E0,3.8585937E0,1.1209939E0,1.3430892E1,4.556721E0,6.501745E0,1.5114836E1,1.3427777E0,1.9014007E0,1.117984E0,1.3132381E0,1.414058E0,1.0055785E0],"tree_param":{"num_deleted":"0","num_feature":"17","num_nodes":"49","size_leaf_vector":"1"}},{"base_weights":[-6.129804E-3,4.6987426E-1,-6.5226763E-1,3.3107182E-1,8.554369E-2,-6.637638E-2,-3.807275E-1,4.515036E-1,1.3880835E-1,-5.229004E-2,8.129907E-3,-2.1349845E-2,4.8224777E-1,7.6313965E-2,2.7718628E-2,6.4663625E-1,3.2255486E-1,-5.2091455E-1,2.5453398E-1,3.4702994E-2,8.484941E-2,-8.967819E-3,4.982871E-2,-1.5542099E-2,-6.0899943E-2,6.056262E-2,-2.2087218E-3],"categories":[],"categories_nodes":[],"categories_segments":[],"categories_sizes":[],"default_left":[0,0,0,0,0,0,0,0,0,0,0,0,0,0,0,0,0,0,0,0,0,0,0,0,0,0,0],"id":25,"left_children":[1,3,5,7,-1,-1,9,11,13,-1,-1,-1,15,-1,17,19,21,23,25,-1,-1,-1,-1,-1,-1,-1,-1],"loss_changes":[5.886215E1,5.6147156E0,7.019043E-4,1.8514185E0,0E0,0E0,4.1314918E-1,1.1330519E0,2.2871668E0,0E0,0E0,0E0,1.0636921E0,0E0,3.777652E0,1.0896273E0,1.9701021E0,1.917522E-1,2.0913503E0,0E0,0E0,0E0,0E0,0E0,0E0,0E0,0E0],"parents":[2147483647,0,0,1,1,2,2,3,3,6,6,7,7,8,8,12,12,14,14,15,15,16,16,17,17,18,18],"right_children":[2,4,6,8,-1,-1,10,12,14,-1,-1,-1,16,-1,18,20,22,24,26,-1,-1,-1,-1,-1,-1,-1,-1],"split_conditions":[1E0,2.06602E1,7.9182E2,2.9383E2,8.554369E-2,-6.637638E-2,3.1491E1,-9.975E-1,-9.998E-1,-5.229004E-2,8.129907E-3,-2.1349845E-2,9.1E-3,7.6313965E-2,-2.53E-2,-3.533E-1,3.394E-1,-9.818E-1,8.2808E0,3.4702994E-2,8.484941E-2,-8.967819E-3,4.982871E-2,-1.5542099E-2,-6.0899943E-2,6.056262E-2,-2.2087218E-3],"split_indices":[15,0,6,6,0,0,0,1,1,0,0,0,1,0,1,1,1,2,0,0,0,0,0,0,0,0,0],"split_type":[0,0,0,0,0,0,0,0,0,0,0,0,0,0,0,0,0,0,0,0,0,0,0,0,0,0,0],"sum_hessian":[1.8938516E2,1.092065E2,8.017867E1,8.166559E1,2.7540909E1,7.553625E1,4.6424265E0,4.938377E1,3.228182E1,3.4492755E0,1.1931509E0,1.919535E0,4.7464233E1,3.9897265E0,2.8292091E1,2.1885733E1,2.55785E1,7.8960514E0,2.039604E1,9.904385E0,1.1981349E1,7.791312E0,1.7787188E1,2.0702677E0,5.8257837E0,8.464008E0,1.1932032E1],"tree_param":{"num_deleted":"0","num_feature":"17","num_nodes":"27","size_leaf_vector":"1"}},{"base_weights":[1.0438793E-3,3.52962E-1,-5.3534936E-2,5.180829E-1,-4.8811845E-2,-1.5755633E-1,7.13846E-1,8.308161E-2,-3.9512882E-1,-2.992343E-2,7.5184983E-1,-4.776494E-2,-8.0818206E-2,1.624898E-1,6.645319E-1,-3.0627787E-2,2.00615E-2,-3.447835E-2,7.231527E-2],"categories":[],"categories_nodes":[],"categories_segments":[],"categories_sizes":[],"default_left":[0,0,0,0,0,0,0,0,0,0,0,0,0,0,0,0,0,0,0],"id":26,"left_children":[1,3,-1,5,-1,7,9,-1,11,-1,13,-1,15,-1,17,-1,-1,-1,-1],"loss_changes":[1.7181461E1,7.8855963E0,0E0,6.2529106E0,0E0,2.9695995E0,1.6178036E0,0E0,2.141949E-1,0E0,1.6000252E0,0E0,2.6642177E-1,0E0,2.2402306E0,0E0,0E0,0E0,0E0],"parents":[2147483647,0,0,1,1,3,3,5,5,6,6,8,8,10,10,12,12,14,14],"right_children":[2,4,-1,6,-1,8,10,-1,12,-1,14,-1,16,-1,18,-1,-1,-1,-1],"split_conditions":[1E0,2.06602E1,-5.3534936E-2,6.0339E0,-4.8811845E-2,2.624E1,4.375E1,8.308161E-2,5.1203E0,-2.992343E-2,5.093E1,-4.776494E-2,8.203E1,1.624898E-1,-9.999E-1,-3.0627787E-2,2.00615E-2,-3.447835E-2,7.231527E-2],"split_indices":[15,0,0,0,0,6,6,0,0,0,6,0,6,0,2,0,0,0,0],"split_type":[0,0,0,0,0,0,0,0,0,0,0,0,0,0,0,0,0,0,0],"sum_hessian":[8.901865E1,5.395904E1,3.50596E1,4.5425194E1,8.53385E0,1.024875E1,3.5176445E1,1.5021697E0,8.746579E0,1.0233306E0,3.4153114E1,6.516132E0,2.2304475E0,1.5042169E0,3.2648895E1,1.1893586E0,1.041089E0,1.524195E0,3.11247E1],"tree_param":{"num_deleted":"0","num_feature":"17","num_nodes":"19","size_leaf_vector":"1"}},{"base_weights":[1.0981892E-2,-5.4893017E-2,4.1177657E-1,1.473822E-1,7.3321635E-1,7.7341914E-1,-2.83148E-1,3.624666E-1,1.409168E-1,-2.9859763E-1,1.2606567E-1,1.3526368E-1,-4.9854833E-1,1.1599606E-1,7.576159E-2,1.2964919E-2,-4.4369295E-2,8.222855E-3,-5.426938E-2,-3.403733E-1,7.726595E-1,5.5481326E-2,-5.1482208E-2,1.2693843E-1,9.840106E-3],"categories":[],"categories_nodes":[],"categories_segments":[],"categories_sizes":[],"default_left":[0,0,0,0,0,0,0,0,0,0,0,0,0,0,0,0,0,0,0,0,0,0,0,0,0],"id":27,"left_children":[1,-1,3,5,7,9,11,13,-1,15,-1,-1,17,-1,19,-1,-1,-1,-1,21,23,-1,-1,-1,-1],"loss_changes":[2.4120787E1,0E0,5.214513E0,9.818196E0,6.509613E0,8.096604E0,8.367724E0,4.3563232E0,0E0,3.947448E-1,0E0,0E0,5.580287E-1,0E0,4.7194867E0,0E0,0E0,0E0,0E0,1.8966011E0,1.9017489E0,0E0,0E0,0E0,0E0],"parents":[2147483647,0,0,2,2,3,3,4,4,5,5,6,6,7,7,9,9,12,12,14,14,19,19,20,20],"right_children":[2,-1,4,6,8,10,12,14,-1,16,-1,-1,18,-1,20,-1,-1,-1,-1,22,24,-1,-1,-1,-1],"split_conditions":[1E0,-5.4893017E-2,-9.84E-2,-7.727E-1,7.733E-1,-6.96E-2,-8.068E-1,2.35E-2,1.409168E-1,8.9752E0,1.2606567E-1,1.3526368E-1,5.7227E0,1.1599606E-1,8.235E-1,1.2964919E-2,-4.4369295E-2,8.222855E-3,-5.426938E-2,7.3871E0,1.16E-2,5.5481326E-2,-5.1482208E-2,1.2693843E-1,9.840106E-3],"split_indices":[15,0,1,1,2,2,2,1,0,0,0,0,0,0,1,0,0,0,0,0,2,0,0,0,0],"split_type":[0,0,0,0,0,0,0,0,0,0,0,0,0,0,0,0,0,0,0,0,0,0,0,0,0],"sum_hessian":[1.054782E2,4.3849976E1,6.162823E1,3.4614895E1,2.7013336E1,1.3780354E1,2.0834541E1,1.8437088E1,8.576247E0,4.427081E0,9.353272E0,1.809938E0,1.9024603E1,4.0700555E0,1.4367033E1,1.1472988E0,3.279782E0,1.2829862E0,1.7741617E1,9.31588E0,5.051153E0,1.1637416E0,8.152138E0,2.4002538E0,2.6508996E0],"tree_param":{"num_deleted":"0","num_feature":"17","num_nodes":"25","size_leaf_vector":"1"}},{"base_weights":[-4.789451E-3,-5.389056E-1,3.7317756E-1,-4.5883344E-3,-5.54525E-1,7.356238E-2,5.5195117E-1,-3.3960247E-1,-5.714306E-2,3.9920306E-1,-2.3077935E-1,-3.7471887E-2,5.916286E-1,1.170771E-2,-4.7234178E-2,-2.0393103E-1,5.593835E-1,-5.154988E-2,-1.217766E-3,7.815124E-1,3.5707098E-1,-3.817001E-2,1.0178692E-2,3.0731648E-1,1.0705848E-1,1.7566283E-1,-4.154948E-2,1.1238127E-2,8.0765045E-1,-1.4683098E-1,4.8338628E-1,7.2594225E-2,-2.9299742E-2,-3.7044335E-2,3.776406E-2,8.42128E-2,2.326677E-2,-3.9855193E-2,8.977128E-3,-3.4692463E-2,5.6818027E-2],"categories":[],"categories_nodes":[],"categories_segments":[],"categories_sizes":[],"default_left":[0,0,0,0,0,0,0,0,0,0,0,0,0,0,0,0,0,0,0,0,0,0,0,0,0,0,0,0,0,0,0,0,0,0,0,0,0,0,0,0,0],"id":28,"left_children":[1,3,5,-1,7,9,11,13,-1,15,17,-1,19,-1,-1,21,23,-1,25,27,29,-1,-1,31,-1,33,-1,-1,35,37,39,-1,-1,-1,-1,-1,-1,-1,-1,-1,-1],"loss_changes":[2.7543367E1,4.0991783E-1,4.2393274E0,0E0,4.7187805E-3,3.165794E0,2.056055E0,4.465629E-1,0E0,1.5969484E0,1.088601E0,0E0,1.8690262E0,0E0,0E0,2.5373018E-1,1.2682009E0,0E0,8.225062E-1,3.606739E-1,1.561538E0,0E0,0E0,2.6514716E0,0E0,1.0080616E0,0E0,0E0,2.9331398E-1,3.6100525E-1,1.5318046E0,0E0,0E0,0E0,0E0,0E0,0E0,0E0,0E0,0E0,0E0],"parents":[2147483647,0,0,1,1,2,2,4,4,5,5,6,6,7,7,9,9,10,10,12,12,15,15,16,16,18,18,19,19,20,20,23,23,25,25,28,28,29,29,30,30],"right_children":[2,4,6,-1,8,10,12,14,-1,16,18,-1,20,-1,-1,22,24,-1,26,28,30,-1,-1,32,-1,34,-1,-1,36,38,40,-1,-1,-1,-1,-1,-1,-1,-1,-1,-1],"split_conditions":[1E0,1.6468E0,1.30757E1,-4.5883344E-3,3.7409E0,-6.92E-1,-9.969E-1,-2.141E-1,-5.714306E-2,-9.969E-1,4.061E-1,-3.7471887E-2,-3.909E-1,1.170771E-2,-4.7234178E-2,5E-4,4.8047E2,-5.154988E-2,9.928E-1,-7.312E-1,1.5486E2,-3.817001E-2,1.0178692E-2,5.593E1,1.0705848E-1,7.86E0,-4.154948E-2,1.1238127E-2,3.18596E1,4.042E-1,-9.988E-1,7.2594225E-2,-2.9299742E-2,-3.7044335E-2,3.776406E-2,8.42128E-2,2.326677E-2,-3.9855193E-2,8.977128E-3,-3.4692463E-2,5.6818027E-2],"split_indices":[15,0,0,0,0,1,1,1,0,1,2,0,1,0,0,2,6,0,2,2,6,0,0,6,0,0,0,0,0,1,2,0,0,0,0,0,0,0,0,0,0],"split_type":[0,0,0,0,0,0,0,0,0,0,0,0,0,0,0,0,0,0,0,0,0,0,0,0,0,0,0,0,0,0,0,0,0,0,0,0,0,0,0,0,0],"sum_hessian":[1.3443933E2,5.553517E1,7.890417E1,1.8262926E0,5.3708878E1,3.001391E1,4.8890255E1,5.4544196E0,4.825446E1,1.4349011E1,1.56649E1,1.6606848E0,4.722957E1,1.2549278E0,4.199492E0,2.9538033E0,1.1395208E1,6.436407E0,9.228493E0,2.481167E1,2.2417898E1,1.710591E0,1.2432122E0,8.704361E0,2.6908474E0,6.870869E0,2.3576236E0,1.1320059E0,2.3679665E1,4.4606957E0,1.7957203E1,5.0049286E0,3.699432E0,1.6298935E0,5.240976E0,2.1901762E1,1.7779022E0,1.8296508E0,2.6310449E0,1.3774734E0,1.657973E1],"tree_param":{"num_deleted":"0","num_feature":"17","num_nodes":"41","size_leaf_vector":"1"}},{"base_weights":[4.613788E-3,-2.9924262E-1,2.4868275E-1,2.306288E-1,-4.631506E-1,4.3306842E-1,-1.5695953E-1,-3.013179E-1,5.358121E-1,-4.9960265E-1,-2.0002785E-1,4.9228033E-1,-4.1560736E-2,3.4909382E-2,-5.0646074E-2,7.3575014E-3,-4.424895E-2,7.5213945E-1,-3.43102E-2,-5.4793026E-2,-3.445316E-1,5.3513747E-2,-4.684007E-2,-3.8366605E-2,5.398476E-1,-3.318429E-1,6.398819E-1,1.148949E-2,8.576332E-1,5.6686856E-2,-5.1228892E-2,7.9124355E-1,3.0103263E-1,-1.1881286E-3,-4.9306426E-2,1.2426161E-3,8.582033E-1,9.86711E-2,1.4649311E-2,9.0401955E-2,3.5218816E-2,-1.22088455E-2,4.7257874E-2,-3.3600047E-2,2.613023E-2,1.0072289E-1,1.7754493E-2],"categories":[],"categories_nodes":[],"categories_segments":[],"categories_sizes":[],"default_left":[0,0,0,0,0,0,0,0,0,0,0,0,0,0,0,0,0,0,0,0,0,0,0,0,0,0,0,0,0,0,0,0,0,0,0,0,0,0,0,0,0,0,0,0,0,0,0],"id":29,"left_children":[1,3,5,7,9,11,13,15,17,19,21,23,-1,25,-1,-1,-1,27,-1,-1,29,-1,-1,-1,31,33,35,-1,37,-1,-1,39,41,43,-1,-1,45,-1,-1,-1,-1,-1,-1,-1,-1,-1,-1],"loss_changes":[8.953696E0,4.7781262E0,5.074907E0,2.3327131E0,2.9725456E-1,2.5306826E0,1.4697433E0,3.2448202E-1,1.9424057E0,7.88002E-2,1.5738586E0,2.029091E0,0E0,3.521574E0,0E0,0E0,0E0,4.004283E-1,0E0,0E0,1.9993434E0,0E0,0E0,0E0,2.2768078E0,5.295218E-1,8.072474E-1,0E0,4.2579508E-1,0E0,0E0,6.6170025E-1,1.7341874E0,4.6234483E-1,0E0,0E0,2.689891E-1,0E0,0E0,0E0,0E0,0E0,0E0,0E0,0E0,0E0,0E0],"parents":[2147483647,0,0,1,1,2,2,3,3,4,4,5,5,6,6,7,7,8,8,9,9,10,10,11,11,13,13,17,17,20,20,24,24,25,25,26,26,28,28,31,31,32,32,33,33,36,36],"right_children":[2,4,6,8,10,12,14,16,18,20,22,24,-1,26,-1,-1,-1,28,-1,-1,30,-1,-1,-1,32,34,36,-1,38,-1,-1,40,42,44,-1,-1,46,-1,-1,-1,-1,-1,-1,-1,-1,-1,-1],"split_conditions":[1E0,5.0755E0,3.8474E2,1.524E2,7.0683E2,9.94E-1,2.42519E1,-9.147E-1,9.94E-1,6.364E-1,9.8723E0,-9.854E-1,-4.1560736E-2,1.60974E1,-5.0646074E-2,7.3575014E-3,-4.424895E-2,2.3248E0,-3.43102E-2,-5.4793026E-2,7.733E-1,5.3513747E-2,-4.684007E-2,-3.8366605E-2,-3.99E-1,4.8047E2,-1.992E-1,1.148949E-2,1.701E-1,5.6686856E-2,-5.1228892E-2,1.5486E2,-7.114E-1,4.3352E2,-4.9306426E-2,1.2426161E-3,7.138E-1,9.86711E-2,1.4649311E-2,9.0401955E-2,3.5218816E-2,-1.22088455E-2,4.7257874E-2,-3.3600047E-2,2.613023E-2,1.0072289E-1,1.7754493E-2],"split_indices":[15,0,6,6,6,2,0,2,2,2,0,2,0,0,0,0,0,0,0,0,2,0,0,0,2,6,2,0,1,0,0,6,1,6,0,0,2,0,0,0,0,0,0,0,0,0,0],"split_type":[0,0,0,0,0,0,0,0,0,0,0,0,0,0,0,0,0,0,0,0,0,0,0,0,0,0,0,0,0,0,0,0,0,0,0,0,0,0,0,0,0,0,0,0,0,0,0],"sum_hessian":[1.1872828E2,5.2785866E1,6.594241E1,1.2374687E1,4.041118E1,4.528871E1,2.0653704E1,4.5159216E0,7.858766E0,3.470459E1,5.7065907E0,4.2727562E1,2.5611496E0,1.3914854E1,6.7388506E0,1.3663338E0,3.1495879E0,6.422287E0,1.4364792E0,2.4527287E1,1.01773E1,1.2602705E0,4.44632E0,1.8368272E0,4.0890736E1,8.944131E0,4.970723E0,1.2089041E0,5.2133827E0,1.2122474E0,8.965054E0,1.879373E1,2.2097004E1,3.2617853E0,5.6823454E0,1.5559216E0,3.4148016E0,4.084505E0,1.1288774E0,1.41103325E1,4.6833973E0,6.457583E0,1.5639421E1,1.3103527E0,1.9514326E0,2.4078362E0,1.0069654E0],"tree_param":{"num_deleted":"0","num_feature":"17","num_nodes":"47","size_leaf_vector":"1"}},{"base_weights":[-7.4456534E-3,4.38522E-1,-6.368642E-1,3.0867338E-1,8.062965E-2,-6.486436E-2,-3.646501E-1,4.1744584E-1,1.2527755E-1,-5.069334E-2,8.058575E-3,3.0628404E-1,7.247455E-2,3.0509079E-1,-2.3342566E-1,4.1065463E-1,-1.04795836E-1,-2.7902234E-1,5.7004267E-1,2.0627481E-1,-6.237006E-2,4.868438E-2,-1.0185656E-2,2.5823612E-2,-4.5733806E-2,2.4692532E-2,-4.4674948E-2,8.95953E-2,2.4220023E-2,-4.227675E-2,5.224474E-2],"categories":[],"categories_nodes":[],"categories_segments":[],"categories_sizes":[],"default_left":[0,0,0,0,0,0,0,0,0,0,0,0,0,0,0,0,0,0,0,0,0,0,0,0,0,0,0,0,0,0,0],"id":30,"left_children":[1,3,5,7,-1,-1,9,11,13,-1,-1,15,-1,17,19,21,23,25,27,29,-1,-1,-1,-1,-1,-1,-1,-1,-1,-1,-1],"loss_changes":[5.2461765E1,4.975479E0,1.1985779E-2,1.5929117E0,0E0,0E0,3.8918668E-1,1.5317993E0,2.143783E0,0E0,0E0,1.7349305E0,0E0,3.5386074E0,2.0670784E0,1.2855463E0,1.2419839E0,7.706681E-1,1.4232588E0,1.4267362E0,0E0,0E0,0E0,0E0,0E0,0E0,0E0,0E0,0E0,0E0,0E0],"parents":[2147483647,0,0,1,1,2,2,3,3,6,6,7,7,8,8,11,11,13,13,14,14,15,15,16,16,17,17,18,18,19,19],"right_children":[2,4,6,8,-1,-1,10,12,14,-1,-1,16,-1,18,20,22,24,26,28,30,-1,-1,-1,-1,-1,-1,-1,-1,-1,-1,-1],"split_conditions":[1E0,2.06602E1,7.9182E2,2.9795E2,8.062965E-2,-6.486436E-2,3.1491E1,1.22165E1,3.22E-2,-5.069334E-2,8.058575E-3,1.524E2,7.247455E-2,-8.068E-1,4.3337E0,9.996E-1,7.86E0,-9.997E-1,8.448E-1,-5.79E-2,-6.237006E-2,4.868438E-2,-1.0185656E-2,2.5823612E-2,-4.5733806E-2,2.4692532E-2,-4.4674948E-2,8.95953E-2,2.4220023E-2,-4.227675E-2,5.224474E-2],"split_indices":[15,0,6,6,0,0,0,0,2,0,0,6,0,2,0,1,0,2,1,1,0,0,0,0,0,0,0,0,0,0,0],"split_type":[0,0,0,0,0,0,0,0,0,0,0,0,0,0,0,0,0,0,0,0,0,0,0,0,0,0,0,0,0,0,0],"sum_hessian":[1.8490106E2,1.0839925E2,7.650182E1,8.147315E1,2.6926094E1,7.2003204E1,4.498615E0,5.0340122E1,3.113303E1,3.3041427E0,1.194472E0,3.8433853E1,1.1906269E1,2.0837116E1,1.0295913E1,3.065243E1,7.781424E0,6.4856787E0,1.4351438E1,5.0630856E0,5.2328267E0,2.6729015E1,3.9234145E0,3.9654682E0,3.815956E0,1.4540333E0,5.0316453E0,6.3279266E0,8.023511E0,1.5808194E0,3.4822664E0],"tree_param":{"num_deleted":"0","num_feature":"17","num_nodes":"31","size_leaf_vector":"1"}},{"base_weights":[2.0548482E-3,3.303299E-1,-5.3164374E-2,4.7574395E-1,-4.8127558E-2,-2.5810647E-1,6.1799437E-1,5.3352203E-2,-4.7178525E-2,-8.1381954E-2,6.611752E-1,1.4820856E-2,-2.8867994E-2,7.5108963E-1,2.6185164E-1,2.2704149E-2,8.343687E-2,8.5582055E-2,-1.6418645E-2],"categories":[],"categories_nodes":[],"categories_segments":[],"categories_sizes":[],"default_left":[0,0,0,0,0,0,0,0,0,0,0,0,0,0,0,0,0,0,0],"id":31,"left_children":[1,3,-1,5,-1,7,9,-1,-1,11,13,-1,-1,15,17,-1,-1,-1,-1],"loss_changes":[1.5764806E1,6.8036947E0,0E0,5.14388E0,0E0,1.6824167E0,1.2705297E0,0E0,0E0,1.9666873E-1,1.1697254E0,0E0,0E0,1.1428185E0,2.2988927E0,0E0,0E0,0E0,0E0],"parents":[2147483647,0,0,1,1,3,3,5,5,6,6,9,9,10,10,13,13,14,14],"right_children":[2,4,-1,6,-1,8,10,-1,-1,12,14,-1,-1,16,18,-1,-1,-1,-1],"split_conditions":[1E0,2.06602E1,-5.3164374E-2,5.1203E0,-4.8127558E-2,2.624E1,-9.999E-1,5.3352203E-2,-4.7178525E-2,8.1562E0,1.47818E1,1.4820856E-2,-2.8867994E-2,-5.76E-1,-4.986E-1,2.2704149E-2,8.343687E-2,8.5582055E-2,-1.6418645E-2],"split_indices":[15,0,0,0,0,6,2,0,0,0,0,0,0,1,1,0,0,0,0],"split_type":[0,0,0,0,0,0,0,0,0,0,0,0,0,0,0,0,0,0,0],"sum_hessian":[8.7979416E1,5.4709167E1,3.3270252E1,4.6747345E1,7.961822E0,7.4580164E0,3.928933E1,1.2670519E0,6.1909647E0,2.2332864E0,3.705604E1,1.1949162E0,1.03837E0,2.9526701E1,7.5293417E0,4.5597787E0,2.4966923E1,2.7235146E0,4.805827E0],"tree_param":{"num_deleted":"0","num_feature":"17","num_nodes":"19","size_leaf_vector":"1"}},{"base_weights":[1.1961522E-2,-5.4399367E-2,3.8606876E-1,1.3885096E-1,6.786086E-1,7.0769536E-1,-2.74548E-1,3.409578E-1,1.2693101E-1,-2.917898E-1,1.132795E0,1.2256449E-1,-4.918638E-1,1.0513238E-1,7.396365E-2,1.251276E-2,-4.3727983E-2,5.502084E-1,1.254101E-1,7.859039E-3,-5.3730946E-2,-3.3383533E-1,7.2328794E-1,8.101087E-2,3.5845735E-3,5.2506126E-2,-5.0949764E-2,1.17281295E-1,9.315146E-3],"categories":[],"categories_nodes":[],"categories_segments":[],"categories_sizes":[],"default_left":[0,0,0,0,0,0,0,0,0,0,0,0,0,0,0,0,0,0,0,0,0,0,0,0,0,0,0,0,0],"id":32,"left_children":[1,-1,3,5,7,9,11,13,-1,15,17,-1,19,-1,21,-1,-1,23,-1,-1,-1,25,27,-1,-1,-1,-1,-1,-1],"loss_changes":[2.1881323E1,0E0,4.452525E0,8.502769E0,5.259097E0,6.76724E0,7.5084357E0,3.6255286E0,0E0,3.771581E-1,7.560921E-2,0E0,5.4037666E-1,0E0,4.284138E0,0E0,0E0,4.5872867E-1,0E0,0E0,0E0,1.7856183E0,1.648489E0,0E0,0E0,0E0,0E0,0E0,0E0],"parents":[2147483647,0,0,2,2,3,3,4,4,5,5,6,6,7,7,9,9,10,10,12,12,14,14,17,17,21,21,22,22],"right_children":[2,-1,4,6,8,10,12,14,-1,16,18,-1,20,-1,22,-1,-1,24,-1,-1,-1,26,28,-1,-1,-1,-1,-1,-1],"split_conditions":[1E0,-5.4399367E-2,-9.84E-2,-7.727E-1,7.733E-1,-6.96E-2,-8.068E-1,2.35E-2,1.2693101E-1,8.9752E0,4.5307E0,1.2256449E-1,5.7227E0,1.0513238E-1,8.235E-1,1.251276E-2,-4.3727983E-2,4.0245E2,1.254101E-1,7.859039E-3,-5.3730946E-2,7.3871E0,1.16E-2,8.101087E-2,3.5845735E-3,5.2506126E-2,-5.0949764E-2,1.17281295E-1,9.315146E-3],"split_indices":[15,0,1,1,2,2,2,1,0,0,0,0,0,0,1,0,0,6,0,0,0,0,2,0,0,0,0,0,0],"split_type":[0,0,0,0,0,0,0,0,0,0,0,0,0,0,0,0,0,0,0,0,0,0,0,0,0,0,0,0,0],"sum_hessian":[1.0319555E2,4.1326595E1,6.1868954E1,3.4331196E1,2.7537756E1,1.414943E1,2.0181765E1,1.8525566E1,9.01219E0,4.315802E0,9.833628E0,1.9665039E0,1.8215261E1,4.2582955E0,1.4267271E1,1.152667E0,3.163135E0,2.6486895E0,7.1849384E0,1.2902423E0,1.6925018E1,9.061928E0,5.2053432E0,1.3776212E0,1.2710683E0,1.2009369E0,7.860991E0,2.535425E0,2.6699185E0],"tree_param":{"num_deleted":"0","num_feature":"17","num_nodes":"29","size_leaf_vector":"1"}},{"base_weights":[-5.53115E-3,-5.307087E-1,3.426162E-1,-4.3542166E-3,-5.469474E-1,6.79996E-2,5.0209266E-1,-3.2831895E-1,-5.64589E-2,3.7295887E-1,-2.2533403E-1,-3.6657553E-2,5.376692E-1,1.1661612E-2,-4.634778E-2,-1.941518E-1,5.179976E-1,-5.0751656E-2,-4.827546E-3,7.080673E-1,3.249158E-1,1.1033078E-2,-3.752838E-2,-3.914071E-3,6.8494225E-1,1.5802886E-1,-4.0396802E-2,1.0090092E-2,7.3162043E-1,-1.4092559E-1,4.3798977E-1,-3.9723586E-2,4.8885267E-2,9.9024944E-2,4.1219007E-2,-3.6261596E-2,3.431046E-2,5.6531936E-2,9.500914E-2,-3.9022755E-2,8.768735E-3,-3.385937E-2,5.137908E-2],"categories":[],"categories_nodes":[],"categories_segments":[],"categories_sizes":[],"default_left":[0,0,0,0,0,0,0,0,0,0,0,0,0,0,0,0,0,0,0,0,0,0,0,0,0,0,0,0,0,0,0,0,0,0,0,0,0,0,0,0,0,0,0],"id":33,"left_children":[1,3,5,-1,7,9,11,13,-1,15,17,-1,19,-1,-1,21,23,-1,25,27,29,-1,-1,31,33,35,-1,-1,37,39,41,-1,-1,-1,-1,-1,-1,-1,-1,-1,-1,-1,-1],"loss_changes":[2.457045E1,3.9995193E-1,3.5054197E0,0E0,1.4243126E-2,2.8436027E0,1.7723665E0,4.3013382E-1,0E0,1.3755949E0,1.0147371E0,0E0,1.5598307E0,0E0,0E0,2.5563648E-1,1.1019902E0,0E0,7.259658E-1,3.0611038E-1,1.3156607E0,0E0,0E0,9.795348E-1,3.883233E-1,8.907764E-1,0E0,0E0,3.862753E-1,3.4233963E-1,1.3159132E0,0E0,0E0,0E0,0E0,0E0,0E0,0E0,0E0,0E0,0E0,0E0,0E0],"parents":[2147483647,0,0,1,1,2,2,4,4,5,5,6,6,7,7,9,9,10,10,12,12,15,15,16,16,18,18,19,19,20,20,23,23,24,24,25,25,28,28,29,29,30,30],"right_children":[2,4,6,-1,8,10,12,14,-1,16,18,-1,20,-1,-1,22,24,-1,26,28,30,-1,-1,32,34,36,-1,-1,38,40,42,-1,-1,-1,-1,-1,-1,-1,-1,-1,-1,-1,-1],"split_conditions":[1E0,1.6468E0,1.30757E1,-4.3542166E-3,3.7409E0,-6.92E-1,-9.969E-1,-2.141E-1,-5.64589E-2,-9.969E-1,4.061E-1,-3.6657553E-2,-3.909E-1,1.1661612E-2,-4.634778E-2,5.4279E0,6.0576E0,-5.0751656E-2,9.928E-1,-7.312E-1,1.5486E2,1.1033078E-2,-3.752838E-2,4.0245E2,4.375E1,7.86E0,-4.0396802E-2,1.0090092E-2,-7.001E-1,4.042E-1,-9.988E-1,-3.9723586E-2,4.8885267E-2,9.9024944E-2,4.1219007E-2,-3.6261596E-2,3.431046E-2,5.6531936E-2,9.500914E-2,-3.9022755E-2,8.768735E-3,-3.385937E-2,5.137908E-2],"split_indices":[15,0,0,0,0,1,1,1,0,1,2,0,1,0,0,0,0,0,2,2,6,0,0,6,6,0,0,0,1,1,2,0,0,0,0,0,0,0,0,0,0,0,0],"split_type":[0,0,0,0,0,0,0,0,0,0,0,0,0,0,0,0,0,0,0,0,0,0,0,0,0,0,0,0,0,0,0,0,0,0,0,0,0,0,0,0,0,0,0],"sum_hessian":[1.323884E2,5.2567047E1,7.982136E1,1.8144498E0,5.0752598E1,2.9848675E1,4.997268E1,5.25381E0,4.5498787E1,1.4501249E1,1.53474245E1,1.6000712E0,4.837261E1,1.2560749E0,3.997735E0,2.8844087E0,1.161684E1,6.1612577E0,9.186167E0,2.556723E1,2.280538E1,1.2216684E0,1.6627405E0,3.0520148E0,8.564826E0,6.953211E0,2.2329564E0,1.152087E0,2.4415142E1,4.4062448E0,1.8399136E1,1.8050818E0,1.246933E0,2.8000202E0,5.764806E0,1.5719119E0,5.381299E0,1.5899777E1,8.515366E0,1.769583E0,2.6366618E0,1.3278997E0,1.7071236E1],"tree_param":{"num_deleted":"0","num_feature":"17","num_nodes":"43","size_leaf_vector":"1"}},{"base_weights":[5.8604884E-3,-2.883654E-1,2.3147006E-1,2.1967112E-1,-4.5358706E-1,3.9828125E-1,-1.4955868E-1,-2.9141504E-1,5.010269E-1,-4.9133202E-1,-1.8808247E-1,4.5099413E-1,-4.0570393E-2,3.734058E-2,-4.9995594E-2,8.002515E-3,-4.3589275E-2,6.991449E-1,-3.372137E-2,-5.41856E-2,-3.316476E-1,5.2046876E-2,-4.6087865E-2,-3.767045E-2,4.940114E-1,-3.239958E-1,6.058048E-1,1.1632415E-2,7.908438E-1,5.508035E-2,-5.0509103E-2,1.2646842E-1,6.222646E-1,-5.14818E-3,-4.8562273E-2,1.22103386E-1,9.097923E-1,9.038749E-2,1.1827642E-2,3.634122E-2,-3.20353E-2,7.075942E-2,-5.662732E-3,-3.3013113E-2,2.430177E-2,-3.203014E-2,4.678414E-2,1.12810455E-1,1.7609984E-2],"categories":[],"categories_nodes":[],"categories_segments":[],"categories_sizes":[],"default_left":[0,0,0,0,0,0,0,0,0,0,0,0,0,0,0,0,0,0,0,0,0,0,0,0,0,0,0,0,0,0,0,0,0,0,0,0,0,0,0,0,0,0,0,0,0,0,0,0,0],"id":34,"left_children":[1,3,5,7,9,11,13,15,17,19,21,23,-1,25,-1,-1,-1,27,-1,-1,29,-1,-1,-1,31,33,35,-1,37,-1,-1,39,41,43,-1,45,47,-1,-1,-1,-1,-1,-1,-1,-1,-1,-1,-1,-1],"loss_changes":[7.9135327E0,4.4433417E0,4.3473916E0,2.0690227E0,3.0218697E-1,2.1830282E0,1.4115013E0,3.2361916E-1,1.729192E0,9.342766E-2,1.5003594E0,1.779892E0,0E0,3.236408E0,0E0,0E0,0E0,3.1412697E-1,0E0,0E0,1.9181364E0,0E0,0E0,0E0,1.947506E0,4.974004E-1,7.8587914E-1,0E0,3.7913322E-1,0E0,0E0,1.4264989E0,1.8712072E0,4.2490923E-1,0E0,6.866074E-1,3.7652183E-1,0E0,0E0,0E0,0E0,0E0,0E0,0E0,0E0,0E0,0E0,0E0,0E0],"parents":[2147483647,0,0,1,1,2,2,3,3,4,4,5,5,6,6,7,7,8,8,9,9,10,10,11,11,13,13,17,17,20,20,24,24,25,25,26,26,28,28,31,31,32,32,33,33,35,35,36,36],"right_children":[2,4,6,8,10,12,14,16,18,20,22,24,-1,26,-1,-1,-1,28,-1,-1,30,-1,-1,-1,32,34,36,-1,38,-1,-1,40,42,44,-1,46,48,-1,-1,-1,-1,-1,-1,-1,-1,-1,-1,-1,-1],"split_conditions":[1E0,5.0755E0,3.8474E2,1.524E2,7.0683E2,9.94E-1,2.42519E1,-3.533E-1,9.94E-1,6.364E-1,7.0805E2,-9.854E-1,-4.0570393E-2,1.60974E1,-4.9995594E-2,8.002515E-3,-4.3589275E-2,2.3248E0,-3.372137E-2,-5.41856E-2,7.733E-1,5.2046876E-2,-4.6087865E-2,-3.767045E-2,-7.114E-1,4.8047E2,8.4E-2,1.1632415E-2,4.4193E0,5.508035E-2,-5.0509103E-2,-7.255E-1,8.235E-1,4.3352E2,-4.8562273E-2,2.0721E1,7.138E-1,9.038749E-2,1.1827642E-2,3.634122E-2,-3.20353E-2,7.075942E-2,-5.662732E-3,-3.3013113E-2,2.430177E-2,-3.203014E-2,4.678414E-2,1.12810455E-1,1.7609984E-2],"split_indices":[15,0,6,6,6,2,0,1,2,2,6,2,0,0,0,0,0,0,0,0,2,0,0,0,1,6,2,0,0,0,0,1,1,6,0,0,2,0,0,0,0,0,0,0,0,0,0,0,0],"split_type":[0,0,0,0,0,0,0,0,0,0,0,0,0,0,0,0,0,0,0,0,0,0,0,0,0,0,0,0,0,0,0,0,0,0,0,0,0,0,0,0,0,0,0,0,0,0,0,0,0],"sum_hessian":[1.17209755E2,5.074853E1,6.646122E1,1.2373123E1,3.837541E1,4.6193024E1,2.0268196E1,4.3803725E0,7.9927506E0,3.285419E1,5.5212173E0,4.376279E1,2.430233E0,1.3800531E1,6.467666E0,1.3516082E0,3.0287642E0,6.5990133E0,1.3937374E0,2.3139566E1,9.714624E0,1.2824148E0,4.238803E0,1.7788457E0,4.1983944E1,8.700335E0,5.1001964E0,1.2055173E0,5.393496E0,1.2383602E0,8.476264E0,1.1374227E1,3.0609718E1,3.2738123E0,5.4265223E0,2.5092227E0,2.5909736E0,4.32305E0,1.0704461E0,7.5547237E0,3.819503E0,2.7154415E1,3.4553025E0,1.274509E0,1.9993035E0,1.1330057E0,1.3762169E0,1.5825192E0,1.0084544E0],"tree_param":{"num_deleted":"0","num_feature":"17","num_nodes":"49","size_leaf_vector":"1"}},{"base_weights":[-8.991181E-3,4.1024297E-1,-6.2299174E-1,2.8813305E-1,7.648666E-2,-6.3514896E-2,-3.4863478E-1,3.8872412E-1,1.1719037E-1,-4.926244E-2,8.548274E-3,2.8301758E-1,6.8107754E-1,2.8932425E-1,-2.3080806E-1,3.8104278E-1,-1.0329406E-1,7.6109394E-2,3.5876942E-1,-2.687605E-1,5.3881365E-1,1.8994008E-1,-6.0701367E-2,-3.5154398E-3,4.69221E-2,2.4478462E-2,-4.4345777E-2,-1.5190023E-2,6.643063E-2,2.3788001E-2,-4.3298353E-2,8.534111E-2,2.2614963E-2,-4.1331824E-2,4.9104195E-2],"categories":[],"categories_nodes":[],"categories_segments":[],"categories_sizes":[],"default_left":[0,0,0,0,0,0,0,0,0,0,0,0,0,0,0,0,0,0,0,0,0,0,0,0,0,0,0,0,0,0,0,0,0,0,0],"id":35,"left_children":[1,3,5,7,-1,-1,9,11,13,-1,-1,15,17,19,21,23,25,-1,27,29,31,33,-1,-1,-1,-1,-1,-1,-1,-1,-1,-1,-1,-1,-1],"loss_changes":[4.687779E1,4.4664764E0,2.5007248E-2,1.3664455E0,0E0,0E0,3.7665075E-1,1.3914809E0,1.9747667E0,0E0,0E0,1.5299091E0,5.9692383E-2,3.1738043E0,1.8718665E0,1.1765056E0,1.1449529E0,0E0,7.964549E-1,7.1768796E-1,1.3184934E0,1.2928473E0,0E0,0E0,0E0,0E0,0E0,0E0,0E0,0E0,0E0,0E0,0E0,0E0,0E0],"parents":[2147483647,0,0,1,1,2,2,3,3,6,6,7,7,8,8,11,11,12,12,13,13,14,14,15,15,16,16,18,18,19,19,20,20,21,21],"right_children":[2,4,6,8,-1,-1,10,12,14,-1,-1,16,18,20,22,24,26,-1,28,30,32,34,-1,-1,-1,-1,-1,-1,-1,-1,-1,-1,-1,-1,-1],"split_conditions":[1E0,2.06602E1,7.9182E2,2.9795E2,7.648666E-2,-6.3514896E-2,3.1491E1,1.22165E1,3.22E-2,-4.926244E-2,8.548274E-3,1.524E2,1.69086E1,-8.068E-1,4.3337E0,-3.533E-1,7.86E0,7.6109394E-2,1.76008E1,-9.997E-1,8.448E-1,-5.79E-2,-6.0701367E-2,-3.5154398E-3,4.69221E-2,2.4478462E-2,-4.4345777E-2,-1.5190023E-2,6.643063E-2,2.3788001E-2,-4.3298353E-2,8.534111E-2,2.2614963E-2,-4.1331824E-2,4.9104195E-2],"split_indices":[15,0,6,6,0,0,0,0,2,0,0,6,0,2,0,1,0,0,0,2,1,1,0,0,0,0,0,0,0,0,0,0,0,0,0],"split_type":[0,0,0,0,0,0,0,0,0,0,0,0,0,0,0,0,0,0,0,0,0,0,0,0,0,0,0,0,0,0,0,0,0,0,0],"sum_hessian":[1.8012042E2,1.0723391E2,7.288651E1,8.111541E1,2.61185E1,6.853459E1,4.3519163E0,5.0263752E1,3.0851658E1,3.1667767E0,1.1851395E0,3.836143E1,1.1902321E1,2.075434E1,1.0097318E1,3.060832E1,7.7531133E0,8.4445E0,3.4578211E0,6.387917E0,1.4366423E1,5.000206E0,5.0971117E0,5.456276E0,2.5152044E1,3.970559E0,3.7825544E0,1.4826252E0,1.9751958E0,1.4539263E0,4.933991E0,6.298994E0,8.067429E0,1.5407081E0,3.4594982E0],"tree_param":{"num_deleted":"0","num_feature":"17","num_nodes":"35","size_leaf_vector":"1"}},{"base_weights":[3.2321222E-3,3.105436E-1,-5.280455E-2,4.394715E-1,-4.7442175E-2,-1.444506E-1,5.907075E-1,7.474703E-2,-3.8377455E-1,-3.0634135E-2,6.23686E-1,-4.7038388E-2,-7.617307E-2,1.4186232E-1,5.4656E-1,2.1608423E-2,-3.0926181E-2,-3.3201594E-2,5.921045E-2],"categories":[],"categories_nodes":[],"categories_segments":[],"categories_sizes":[],"default_left":[0,0,0,0,0,0,0,0,0,0,0,0,0,0,0,0,0,0,0],"id":36,"left_children":[1,3,-1,5,-1,7,9,-1,11,-1,13,-1,15,-1,17,-1,-1,-1,-1],"loss_changes":[1.4498183E1,5.901374E0,0E0,4.3979435E0,0E0,2.6028342E0,1.3443737E0,0E0,2.0967221E-1,0E0,1.5502691E0,0E0,2.8603128E-1,0E0,1.6452703E0,0E0,0E0,0E0,0E0],"parents":[2147483647,0,0,1,1,3,3,5,5,6,6,8,8,10,10,12,12,14,14],"right_children":[2,4,-1,6,-1,8,10,-1,12,-1,14,-1,16,-1,18,-1,-1,-1,-1],"split_conditions":[1E0,2.06602E1,-5.280455E-2,6.0339E0,-4.7442175E-2,2.624E1,4.375E1,7.474703E-2,5.68E-1,-3.0634135E-2,5.093E1,-4.7038388E-2,9.896E-1,1.4186232E-1,-9.999E-1,2.1608423E-2,-3.0926181E-2,-3.3201594E-2,5.921045E-2],"split_indices":[15,0,0,0,0,6,6,0,1,0,6,0,1,0,2,0,0,0,0],"split_type":[0,0,0,0,0,0,0,0,0,0,0,0,0,0,0,0,0,0,0],"sum_hessian":[8.679569E1,5.5251545E1,3.154415E1,4.7834953E1,7.416591E0,9.849786E0,3.798517E1,1.6346092E0,8.215177E0,1.0530143E0,3.693215E1,5.9973454E0,2.2178311E0,1.7280084E0,3.5204144E1,1.016389E0,1.2014421E0,1.4250127E0,3.3779133E1],"tree_param":{"num_deleted":"0","num_feature":"17","num_nodes":"19","size_leaf_vector":"1"}},{"base_weights":[1.3221813E-2,-5.393176E-2,3.6460182E-1,1.3321514E-1,6.314811E-1,6.573029E-1,-2.6581845E-1,3.1953105E-1,1.1624739E-1,-2.8597215E-1,1.0405731E0,1.123443E-1,-4.8498768E-1,9.629222E-2,6.996501E-2,1.1879253E-2,-4.313309E-2,5.166459E-1,1.1470648E-1,7.4666566E-3,-5.3186607E-2,-3.2730657E-1,6.7065823E-1,7.705488E-2,2.3529723E-3,4.9675968E-2,-5.0410755E-2,1.08050026E-1,8.41334E-3],"categories":[],"categories_nodes":[],"categories_segments":[],"categories_sizes":[],"default_left":[0,0,0,0,0,0,0,0,0,0,0,0,0,0,0,0,0,0,0,0,0,0,0,0,0,0,0,0,0],"id":37,"left_children":[1,-1,3,5,7,9,11,13,-1,15,17,-1,19,-1,21,-1,-1,23,-1,-1,-1,25,27,-1,-1,-1,-1,-1,-1],"loss_changes":[1.9927303E1,0E0,3.788806E0,7.464878E0,4.408598E0,5.8494315E0,6.7877026E0,3.0728981E0,0E0,3.584401E-1,2.8655052E-2,0E0,5.226526E-1,0E0,3.8395689E0,0E0,0E0,4.4518816E-1,0E0,0E0,0E0,1.6786621E0,1.4395442E0,0E0,0E0,0E0,0E0,0E0,0E0],"parents":[2147483647,0,0,2,2,3,3,4,4,5,5,6,6,7,7,9,9,10,10,12,12,14,14,17,17,21,21,22,22],"right_children":[2,-1,4,6,8,10,12,14,-1,16,18,-1,20,-1,22,-1,-1,24,-1,-1,-1,26,28,-1,-1,-1,-1,-1,-1],"split_conditions":[1E0,-5.393176E-2,-9.84E-2,-7.727E-1,7.733E-1,-6.96E-2,-8.068E-1,2.35E-2,1.1624739E-1,8.9752E0,4.5307E0,1.123443E-1,5.7227E0,9.629222E-2,8.235E-1,1.1879253E-2,-4.313309E-2,2.1197E0,1.1470648E-1,7.4666566E-3,-5.3186607E-2,7.3871E0,1.16E-2,7.705488E-2,2.3529723E-3,4.9675968E-2,-5.0410755E-2,1.08050026E-1,8.41334E-3],"split_indices":[15,0,1,1,2,2,2,1,0,0,0,0,0,0,1,0,0,0,0,0,0,0,2,0,0,0,0,0,0],"split_type":[0,0,0,0,0,0,0,0,0,0,0,0,0,0,0,0,0,0,0,0,0,0,0,0,0,0,0,0,0],"sum_hessian":[1.00625206E2,3.890806E1,6.1717148E1,3.3859673E1,2.7857477E1,1.4356592E1,1.950308E1,1.8557182E1,9.300295E0,4.221305E0,1.0135287E1,2.095335E0,1.7407745E1,4.3875413E0,1.4169641E1,1.1636841E0,3.0576205E0,2.700524E0,7.434763E0,1.2996151E0,1.610813E1,8.802909E0,5.366731E0,1.411262E0,1.289262E0,1.2353327E0,7.5675764E0,2.6634223E0,2.7033088E0],"tree_param":{"num_deleted":"0","num_feature":"17","num_nodes":"29","size_leaf_vector":"1"}},{"base_weights":[-5.9473785E-3,-5.22843E-1,3.1612945E-1,-4.072547E-3,-5.3976053E-1,6.1777286E-2,4.60777E-1,-3.1688237E-1,-5.58241E-2,3.4564304E-1,-2.1945854E-1,-3.578047E-2,4.929433E-1,1.1949143E-2,-4.5497146E-2,-1.8550289E-1,4.768259E-1,-5.0011244E-2,-6.0108886E-3,5.3125995E-1,-1.9667618E-1,-3.6755763E-2,1.1249338E-2,2.511428E-1,9.361743E-2,1.4490908E-1,-3.9238837E-2,-3.3011347E-2,5.619908E-1,-3.4922965E-2,2.9161542E-3,6.2170893E-2,-2.9693175E-2,-3.5399143E-2,3.1535853E-2,-3.473648E-2,5.9032347E-2],"categories":[],"categories_nodes":[],"categories_segments":[],"categories_sizes":[],"default_left":[0,0,0,0,0,0,0,0,0,0,0,0,0,0,0,0,0,0,0,0,0,0,0,0,0,0,0,0,0,0,0,0,0,0,0,0,0],"id":38,"left_children":[1,3,5,-1,7,9,11,13,-1,15,17,-1,19,-1,-1,21,23,-1,25,27,29,-1,-1,31,-1,33,-1,-1,35,-1,-1,-1,-1,-1,-1,-1,-1],"loss_changes":[2.1993353E1,3.9163113E-1,2.9665022E0,0E0,2.4559975E-2,2.5240076E0,1.5386791E0,4.1940582E-1,0E0,1.1788955E0,9.564266E-1,0E0,1.4310331E0,0E0,0E0,2.4856696E-1,1.0949702E0,0E0,6.463578E-1,1.451623E0,1.2636922E-1,0E0,0E0,2.2094908E0,0E0,7.9193807E-1,0E0,0E0,1.4044571E0,0E0,0E0,0E0,0E0,0E0,0E0,0E0,0E0],"parents":[2147483647,0,0,1,1,2,2,4,4,5,5,6,6,7,7,9,9,10,10,12,12,15,15,16,16,18,18,19,19,20,20,23,23,25,25,28,28],"right_children":[2,4,6,-1,8,10,12,14,-1,16,18,-1,20,-1,-1,22,24,-1,26,28,30,-1,-1,32,-1,34,-1,-1,36,-1,-1,-1,-1,-1,-1,-1,-1],"split_conditions":[1E0,1.6468E0,1.30757E1,-4.072547E-3,3.7409E0,-6.92E-1,-9.969E-1,-2.141E-1,-5.58241E-2,-9.969E-1,4.061E-1,-3.578047E-2,9.941E-1,1.1949143E-2,-4.5497146E-2,5E-4,4.8047E2,-5.0011244E-2,9.928E-1,-9.988E-1,2.4489E2,-3.6755763E-2,1.1249338E-2,5.593E1,9.361743E-2,7.86E0,-3.9238837E-2,-3.3011347E-2,5.718E1,-3.4922965E-2,2.9161542E-3,6.2170893E-2,-2.9693175E-2,-3.5399143E-2,3.1535853E-2,-3.473648E-2,5.9032347E-2],"split_indices":[15,0,0,0,0,1,1,1,0,1,2,0,1,0,0,2,6,0,2,2,6,0,0,6,0,0,0,0,6,0,0,0,0,0,0,0,0],"split_type":[0,0,0,0,0,0,0,0,0,0,0,0,0,0,0,0,0,0,0,0,0,0,0,0,0,0,0,0,0,0,0,0,0,0,0,0,0],"sum_hessian":[1.3011517E2,4.9711185E1,8.0403984E1,1.8007436E0,4.7910442E1,2.9665848E1,5.0738136E1,5.0579143E0,4.2852528E1,1.4649918E1,1.5015929E1,1.5356108E0,4.9202526E1,1.2481928E0,3.8097215E0,2.8195934E0,1.1830324E1,5.9065795E0,9.109349E0,4.683018E1,2.3723457E0,1.6053855E0,1.2142078E0,8.969999E0,2.860325E0,7.000063E0,2.1092868E0,1.2775983E0,4.555258E1,1.0898068E0,1.282539E0,5.2714777E0,3.6985216E0,1.5083513E0,5.4917116E0,1.0361563E0,4.4516426E1],"tree_param":{"num_deleted":"0","num_feature":"17","num_nodes":"37","size_leaf_vector":"1"}},{"base_weights":[6.6914908E-3,-2.77894E-1,2.1519902E-1,2.077039E-1,-4.4411153E-1,3.6574754E-1,-1.4200692E-1,-2.8121516E-1,4.657891E-1,-4.8324224E-1,-1.7577437E-1,4.1268155E-1,-3.9569255E-2,3.9031062E-2,-4.9285173E-2,9.408311E-3,-4.2967457E-2,6.471153E-1,-3.3153463E-2,-5.3618517E-2,-3.180937E-1,5.0390195E-2,-4.5287568E-2,-3.6959756E-2,4.5162877E-1,-3.1732047E-1,5.787908E-1,1.156753E-2,7.271712E-1,5.3223222E-2,-4.9757328E-2,6.6863286E-1,2.4480623E-1,-8.848653E-3,-4.791536E-2,1.1682465E-1,8.64419E-1,8.383366E-2,1.2052781E-2,7.70356E-2,2.8634423E-2,-1.278232E-2,3.8945347E-2,-3.2456607E-2,2.2646049E-2,-3.1482648E-2,4.4472832E-2,1.0588372E-1,1.7588018E-2],"categories":[],"categories_nodes":[],"categories_segments":[],"categories_sizes":[],"default_left":[0,0,0,0,0,0,0,0,0,0,0,0,0,0,0,0,0,0,0,0,0,0,0,0,0,0,0,0,0,0,0,0,0,0,0,0,0,0,0,0,0,0,0,0,0,0,0,0,0],"id":39,"left_children":[1,3,5,7,9,11,13,15,17,19,21,23,-1,25,-1,-1,-1,27,-1,-1,29,-1,-1,-1,31,33,35,-1,37,-1,-1,39,41,43,-1,45,47,-1,-1,-1,-1,-1,-1,-1,-1,-1,-1,-1,-1],"loss_changes":[6.984088E0,4.1102576E0,3.7040055E0,1.8187675E0,3.0781555E-1,1.8806748E0,1.3439312E0,3.326448E-1,1.5346507E0,1.0986662E-1,1.4207847E0,1.5609632E0,0E0,3.0080101E0,0E0,0E0,0E0,2.4679399E-1,0E0,0E0,1.828274E0,0E0,0E0,0E0,1.8126659E0,4.6953404E-1,7.1622896E-1,0E0,3.4205437E-1,0E0,0E0,5.925894E-1,1.350063E0,3.9180303E-1,0E0,6.3858885E-1,3.051648E-1,0E0,0E0,0E0,0E0,0E0,0E0,0E0,0E0,0E0,0E0,0E0,0E0],"parents":[2147483647,0,0,1,1,2,2,3,3,4,4,5,5,6,6,7,7,8,8,9,9,10,10,11,11,13,13,17,17,20,20,24,24,25,25,26,26,28,28,31,31,32,32,33,33,35,35,36,36],"right_children":[2,4,6,8,10,12,14,16,18,20,22,24,-1,26,-1,-1,-1,28,-1,-1,30,-1,-1,-1,32,34,36,-1,38,-1,-1,40,42,44,-1,46,48,-1,-1,-1,-1,-1,-1,-1,-1,-1,-1,-1,-1],"split_conditions":[1E0,5.0755E0,3.8474E2,1.524E2,7.0683E2,9.94E-1,2.42519E1,-9.147E-1,9.94E-1,6.364E-1,9.8723E0,-9.854E-1,-3.9569255E-2,1.60974E1,-4.9285173E-2,9.408311E-3,-4.2967457E-2,2.3248E0,-3.3153463E-2,-5.3618517E-2,7.733E-1,5.0390195E-2,-4.5287568E-2,-3.6959756E-2,-3.99E-1,4.8047E2,8.4E-2,1.156753E-2,1.701E-1,5.3223222E-2,-4.9757328E-2,1.5486E2,-7.114E-1,4.3352E2,-4.791536E-2,2.0721E1,7.138E-1,8.383366E-2,1.2052781E-2,7.70356E-2,2.8634423E-2,-1.278232E-2,3.8945347E-2,-3.2456607E-2,2.2646049E-2,-3.1482648E-2,4.4472832E-2,1.0588372E-1,1.7588018E-2],"split_indices":[15,0,6,6,6,2,0,2,2,2,0,2,0,0,0,0,0,0,0,0,2,0,0,0,2,6,2,0,1,0,0,6,1,6,0,0,2,0,0,0,0,0,0,0,0,0,0,0,0],"split_type":[0,0,0,0,0,0,0,0,0,0,0,0,0,0,0,0,0,0,0,0,0,0,0,0,0,0,0,0,0,0,0,0,0,0,0,0,0,0,0,0,0,0,0,0,0,0,0,0,0],"sum_hessian":[1.1569185E2,4.8780323E1,6.691152E1,1.2375681E1,3.640464E1,4.7055523E1,1.9856E1,4.244755E0,8.130925E0,3.1072557E1,5.332085E0,4.4754925E1,2.3005993E0,1.3683821E1,6.1721797E0,1.3069975E0,2.9377573E0,6.7778974E0,1.3530283E0,2.1828234E1,9.244324E0,1.3072286E0,4.0248566E0,1.7199037E0,4.3035023E1,8.490479E0,5.1933403E0,1.2074361E0,5.5704613E0,1.2686034E0,7.97572E0,1.9910976E1,2.3124044E1,3.2845135E0,5.205966E0,2.522514E0,2.6708264E0,4.384999E0,1.1854625E0,1.4924581E1,4.986396E0,6.498752E0,1.6625292E1,1.2406282E0,2.0438852E0,1.1061991E0,1.4163151E0,1.6633532E0,1.0074731E0],"tree_param":{"num_deleted":"0","num_feature":"17","num_nodes":"49","size_leaf_vector":"1"}},{"base_weights":[-1.0244613E-2,3.8516238E-1,-6.104766E-1,2.7000207E-1,7.2956614E-2,-6.235077E-2,-3.3902997E-1,3.6351472E-1,1.0994805E-1,-4.8624035E-2,1.2284932E-2,2.6065153E-1,6.492469E-1,2.7616045E-1,-2.2998366E-1,3.3575782E-1,-2.2483377E-1,7.254017E-1,3.4246355E-1,-2.580643E-1,5.1171166E-1,1.7477544E-1,-5.930683E-2,-4.8521627E-2,3.8601752E-2,1.9725822E-2,-5.9123155E-2,3.144742E-2,7.93067E-2,-1.491078E-2,6.3777834E-2,2.2877762E-2,-4.1876785E-2,6.1374917E-3,7.08402E-2,-4.0415037E-2,4.6230584E-2],"categories":[],"categories_nodes":[],"categories_segments":[],"categories_sizes":[],"default_left":[0,0,0,0,0,0,0,0,0,0,0,0,0,0,0,0,0,0,0,0,0,0,0,0,0,0,0,0,0,0,0,0,0,0,0,0,0],"id":40,"left_children":[1,3,5,7,-1,-1,9,11,13,-1,-1,15,17,19,21,23,25,27,29,31,33,35,-1,-1,-1,-1,-1,-1,-1,-1,-1,-1,-1,-1,-1,-1,-1],"loss_changes":[4.2020176E1,4.0369797E0,3.7302017E-2,1.18118E0,0E0,0E0,4.277349E-1,1.331677E0,1.844575E0,0E0,0E0,1.5055506E0,5.1715374E-2,2.8533354E0,1.7051485E0,1.6053116E0,1.0218807E0,1.1906624E-2,7.40971E-1,6.6553724E-1,1.3155813E0,1.1731648E0,0E0,0E0,0E0,0E0,0E0,0E0,0E0,0E0,0E0,0E0,0E0,0E0,0E0,0E0,0E0],"parents":[2147483647,0,0,1,1,2,2,3,3,6,6,7,7,8,8,11,11,12,12,13,13,14,14,15,15,16,16,17,17,18,18,19,19,20,20,21,21],"right_children":[2,4,6,8,-1,-1,10,12,14,-1,-1,16,18,20,22,24,26,28,30,32,34,36,-1,-1,-1,-1,-1,-1,-1,-1,-1,-1,-1,-1,-1,-1,-1],"split_conditions":[1E0,2.06602E1,3.29427E1,2.9795E2,7.2956614E-2,-6.235077E-2,7.0609E2,1.22165E1,3.22E-2,-4.8624035E-2,1.2284932E-2,9.996E-1,1.69086E1,-8.068E-1,4.3337E0,-9.975E-1,6.664E1,1.33295E1,1.76008E1,-9.997E-1,5.246E2,-5.79E-2,-5.930683E-2,-4.8521627E-2,3.8601752E-2,1.9725822E-2,-5.9123155E-2,3.144742E-2,7.93067E-2,-1.491078E-2,6.3777834E-2,2.2877762E-2,-4.1876785E-2,6.1374917E-3,7.08402E-2,-4.0415037E-2,4.6230584E-2],"split_indices":[15,0,0,6,0,0,6,0,2,0,0,1,0,2,0,1,6,0,0,2,6,1,0,0,0,0,0,0,0,0,0,0,0,0,0,0,0],"split_type":[0,0,0,0,0,0,0,0,0,0,0,0,0,0,0,0,0,0,0,0,0,0,0,0,0,0,0,0,0,0,0,0,0,0,0,0,0],"sum_hessian":[1.7505865E2,1.0575206E2,6.930659E1,8.0589005E1,2.5163052E1,6.4894295E1,4.4122972E0,5.006626E1,3.0522747E1,3.305897E0,1.1064001E0,3.8219513E1,1.1846746E1,2.0625393E1,9.897355E0,3.3366074E1,4.8534408E0,8.397612E0,3.4491346E0,6.282118E0,1.4343275E1,4.9253335E0,4.972021E0,1.4255779E0,3.1940495E1,2.469822E0,2.3836186E0,1.9857519E0,6.41186E0,1.4802492E0,1.9688855E0,1.4539279E0,4.8281903E0,4.7590723E0,9.584203E0,1.4998603E0,3.4254735E0],"tree_param":{"num_deleted":"0","num_feature":"17","num_nodes":"37","size_leaf_vector":"1"}},{"base_weights":[4.5682443E-3,2.9263404E-1,-5.2455593E-2,4.073804E-1,-4.6753522E-2,-2.4213369E-1,5.195745E-1,6.593469E-2,-4.6947137E-2,-6.896384E-3,5.525849E-1,6.279825E-1,2.1098255E-1,1.8750057E-2,6.96448E-2,-1.8164748E-2,7.437546E-2],"categories":[],"categories_nodes":[],"categories_segments":[],"categories_sizes":[],"default_left":[0,0,0,0,0,0,0,0,0,0,0,0,0,0,0,0,0],"id":41,"left_children":[1,3,-1,5,-1,7,9,-1,-1,-1,11,13,15,-1,-1,-1,-1],"loss_changes":[1.3344841E1,5.1343684E0,0E0,3.753335E0,0E0,1.9520001E0,8.6894894E-1,0E0,0E0,0E0,9.133301E-1,8.573065E-1,1.9858916E0,0E0,0E0,0E0,0E0],"parents":[2147483647,0,0,1,1,3,3,5,5,6,6,10,10,11,11,12,12],"right_children":[2,4,-1,6,-1,8,10,-1,-1,-1,12,14,16,-1,-1,-1,-1],"split_conditions":[1E0,2.06602E1,-5.2455593E-2,5.1203E0,-4.6753522E-2,2.193E1,-9.999E-1,6.593469E-2,-4.6947137E-2,-6.896384E-3,1.47818E1,-5.76E-1,5.7189E2,1.8750057E-2,6.96448E-2,-1.8164748E-2,7.437546E-2],"split_indices":[15,0,0,0,0,6,2,0,0,0,0,1,6,0,0,0,0],"split_type":[0,0,0,0,0,0,0,0,0,0,0,0,0,0,0,0,0],"sum_hessian":[8.554452E1,5.5678806E1,2.9865711E1,4.8779682E1,6.899124E0,7.014305E0,4.1765377E1,1.0299324E0,5.9843726E0,2.1603103E0,3.960507E1,3.1757328E1,7.8477397E0,4.775048E0,2.698228E1,4.8975263E0,2.9502134E0],"tree_param":{"num_deleted":"0","num_feature":"17","num_nodes":"17","size_leaf_vector":"1"}},{"base_weights":[1.4337802E-2,-5.3494807E-2,3.4607762E-1,1.2717344E-1,5.936023E-1,4.2278594E-1,-5.162212E-2,3.022307E-1,1.0790745E-1,-5.4623447E-2,9.6325684E-1,8.898094E-2,6.825427E-2,-3.5326877E-1,1.0358006E-1,4.8564383E-1,1.0590911E-1,-3.1996378E-1,6.2708604E-1,6.033616E-2,-5.113792E-2,7.274742E-2,1.6951207E-3,4.7236297E-2,-4.9838167E-2,1.0070958E-1,7.624389E-3],"categories":[],"categories_nodes":[],"categories_segments":[],"categories_sizes":[],"default_left":[0,0,0,0,0,0,0,0,0,0,0,0,0,0,0,0,0,0,0,0,0,0,0,0,0,0,0],"id":42,"left_children":[1,-1,3,5,7,9,-1,11,-1,13,15,-1,17,19,-1,21,-1,23,25,-1,-1,-1,-1,-1,-1,-1,-1],"loss_changes":[1.820022E1,0E0,3.2972283E0,6.742923E0,3.767562E0,6.2594595E0,0E0,2.6166406E0,0E0,4.833524E0,4.5289993E-3,0E0,3.457357E0,2.0502543E0,0E0,4.1172987E-1,0E0,1.5812211E0,1.2820303E0,0E0,0E0,0E0,0E0,0E0,0E0,0E0,0E0],"parents":[2147483647,0,0,2,2,3,3,4,4,5,5,7,7,9,9,10,10,12,12,13,13,15,15,17,17,18,18],"right_children":[2,-1,4,6,8,10,-1,12,-1,14,16,-1,18,20,-1,22,-1,24,26,-1,-1,-1,-1,-1,-1,-1,-1],"split_conditions":[1E0,-5.3494807E-2,-9.84E-2,6.348E-1,7.733E-1,-6.96E-2,-5.162212E-2,2.35E-2,1.0790745E-1,-6.424E-1,4.5307E0,8.898094E-2,8.235E-1,4.4193E0,1.0358006E-1,4.0245E2,1.0590911E-1,7.3871E0,1.16E-2,6.033616E-2,-5.113792E-2,7.274742E-2,1.6951207E-3,4.7236297E-2,-4.9838167E-2,1.0070958E-1,7.624389E-3],"split_indices":[15,0,1,2,2,2,0,1,0,1,0,0,1,0,0,6,0,0,2,0,0,0,0,0,0,0,0],"split_type":[0,0,0,0,0,0,0,0,0,0,0,0,0,0,0,0,0,0,0,0,0,0,0,0,0,0,0],"sum_hessian":[9.7864494E1,3.661907E1,6.1245422E1,3.3305084E1,2.7940338E1,2.3055119E1,1.0249965E1,1.8474705E1,9.465635E0,1.2719048E1,1.033607E1,4.4632573E0,1.4011447E1,1.0515178E1,2.2038703E0,2.7413638E0,7.5947065E0,8.520047E0,5.4913993E0,1.0920098E0,9.423167E0,1.444113E0,1.2972507E0,1.2631373E0,7.2569103E0,2.759451E0,2.7319484E0],"tree_param":{"num_deleted":"0","num_feature":"17","num_nodes":"27","size_leaf_vector":"1"}},{"base_weights":[-7.3225168E-3,-5.154148E-1,2.9086515E-1,-3.8952802E-3,-5.330374E-1,5.670663E-2,4.2102385E-1,-3.0675444E-1,-5.5236835E-2,3.2320178E-1,-2.1403217E-1,-3.4958467E-2,4.5017853E-1,1.1536026E-2,-4.4657905E-2,-1.7772755E-1,4.4374835E-1,-4.9224913E-2,-8.892482E-3,5.9839356E-1,2.6498348E-1,-3.6040768E-2,1.1348047E-2,2.3322004E-1,8.680722E-2,1.3017114E-1,-3.8077135E-2,6.6742995E-3,6.2032145E-1,-1.448674E-1,3.62553E-1,5.807617E-2,-2.924144E-2,-3.4649815E-2,2.8759588E-2,4.7363922E-2,8.17717E-2,-3.852976E-2,7.265342E-3,-3.2154262E-2,4.2429086E-2],"categories":[],"categories_nodes":[],"categories_segments":[],"categories_sizes":[],"default_left":[0,0,0,0,0,0,0,0,0,0,0,0,0,0,0,0,0,0,0,0,0,0,0,0,0,0,0,0,0,0,0,0,0,0,0,0,0,0,0,0,0],"id":43,"left_children":[1,3,5,-1,7,9,11,13,-1,15,17,-1,19,-1,-1,21,23,-1,25,27,29,-1,-1,31,-1,33,-1,-1,35,37,39,-1,-1,-1,-1,-1,-1,-1,-1,-1,-1],"loss_changes":[1.9666977E1,3.8228893E-1,2.469736E0,0E0,3.2697678E-2,2.2615666E0,1.3353338E0,3.9891917E-1,0E0,1.0276147E0,8.9023316E-1,0E0,1.2401333E0,0E0,0E0,2.4100691E-1,9.5440006E-1,0E0,5.688177E-1,2.7930355E-1,1.030142E0,0E0,0E0,2.0008068E0,0E0,7.0395505E-1,0E0,0E0,3.7417793E-1,3.1120828E-1,9.824667E-1,0E0,0E0,0E0,0E0,0E0,0E0,0E0,0E0,0E0,0E0],"parents":[2147483647,0,0,1,1,2,2,4,4,5,5,6,6,7,7,9,9,10,10,12,12,15,15,16,16,18,18,19,19,20,20,23,23,25,25,28,28,29,29,30,30],"right_children":[2,4,6,-1,8,10,12,14,-1,16,